{"bias": 1.946336746458499, "weightdict": {"fruitfully": -14.941723057288433, "sibilant": 0.9747294326747848, "deuterate": 7.4825543043155704, "slocum": -1.9596258155189863, "joefunkconstr": -15.080129817507746, "favored": 6.463565166157405, "regassification": -1.950492394361786, "sorcery": 0.9626481049031947, "congeal": 3.507930573471581, "galliambic": 0.9742146256099876, "nhc": 24.642263898322668, "maakt": 0.9935247841431595, "syoklktjukroxfxb": 1.8523482444687602, "bmatulal": -15.080129817507746, "998": -16.068778615345167, "wheeled": 2.9689080022158234, "respectfully": 11.658960872705634, "524529": -0.9799420988860201, "cdvh": 10.30035175220359, "middenstand": 0.9935247841431595, "heatherloch": -0.9728228848378554, "zewnetrznego": -7.642588833580297, "tsunamis": 13.473548116843586, "cellspacing": 78.6137674677169, "disappearance": 6.338609942627395, "seance": 11.810257383957985, "gzzyb": 5.166059533620033, "0171": -25.97294816108176, "ibuyit": -11.630176698227144, "bronagh": 15.006772746936115, "margem": 1.8828490949770098, "ductile": 5.512023583252915, "jenny": -12.983845236860187, "dallas": -127.91387845463923, "flprw": 0.9875173967596517, "wrathfully": 12.155679222347715, "realizes": -27.892612812236354, "transparent": 7.438586257587532, "concurred": 4.43095223647457, "inexperience": 1.9668918376654771, "ueleatic": 0.9742146256099876, "gfjdgtz": 3.6201917900996534, "erred": -0.017503440203104112, "availabale": 2.8114338061859048, "8749": -1.93051866322418, "badbadbadgurl": 2.844048693310053, "nikko": 15.351750246148244, "hereof": 13.13572702306453, "wxcsqvjs": 3.5965498139452032, "cpvhi": 5.973067565001732, "collaborations": -1.9594300713878847, "inceptor": 11.708785583836232, "parapsychology": 3.3160504315179367, "uav": 0.9545090639319906, "sogei": 2.7080143519596924, "avouch": 12.994141378156128, "fatiguecapitulate": 0.9670836669139568, "wants": 64.22148252690013, "ryan": -110.82285351879437, "thursdays": -17.35947039467889, "himalayas": 15.006772746936115, "suygy": 5.993485635316939, "cohabitation": 0.981645072826604, "fb": 4.420581712408808, "manorleave": 8.79259734845, "?ll": 4.141021901810828, "desirable": 0.888386696445874, "linuxnews": 0.9927515948253082, "8910": -16.875015414850324, "signpost": 1.880895568548616, "chshayef": 11.879349189912913, "barreller": 13.166752467844132, "riven": 9.438034259137826, "memento": 11.810257383957985, "sfgq": 0.9884785004433605, "yol": 16.853279986532804, "wordy": 0.955906677028056, "naranja": 13.900679427879053, "monkey": 0.9564978243039828, "oat": 3.7414572367583987, "unwed": -0.9834694081284708, "cq": 1.9131130950866266, "pdd": 3.611019220116233, "taubira": 2.9809971597526577, "illustrious": 7.259235697465701, "pamietam": -12.319771527450179, "cydukzeiqjcs": 3.263056622904804, "amelia": -0.1732374709075286, "geochemistry": 7.115751334485614, "targets": 38.28181869787089, "medzmail": 6.327108017483866, "resent": 1.851214885949682, "otm": -3.2433060400766536, "enscoinc": -1.975719897978159, "teasing": -6.790021355684703, "rbues": 5.683775356205382, "319051019": 1.9346332048599353, "popt": 0.9935482734388916, "duckling": 0.9909233446408193, "pt": 105.91663257456383, "ages": 31.143190746783436, "16": -412.69509132442437, "kernel": -14.998214813524353, "emphatically": 0.974995644693083, "1252": 129.39877385876278, "672": -5.953667364168254, "amende": 17.2466904561034, "cancel": -46.48241924086511, "coaching": -2.8839452621111787, "schmidlkoffer": -1.8532056037629852, "basswood": 19.243693613456234, "distributors": 58.2399920919371, "jnlzaza": -15.080129817507746, "giving": -100.58301802216215, "abner": 2.9087930221132146, "insigne": 3.572590732298369, "hf": 4.420581712408808, "2339077915": -0.9709926772120555, "dissociate": 1.9093665524173422, "dissappointed": 2.788929103433155, "fat": 40.39315795964147, "rodent": 8.79259734845, "packaging": 32.329468691704946, "loudcloud": 1.88088382390075, "dxpgrbintel": 34.096462707806865, "failsafe": 3.4669809012451283, "tvg": 0.9934915076408721, "naglfari": 10.30035175220359, "mzbc": 0.9934915076408721, "decorations": 0.010579970286040899, "distirbution": -0.9563862501492549, "709314": -3.8784742136468893, "rjqajfe": 0.9813945203387939, "beachy": -0.97955648294775, "streamline": 2.072194350432888, "knox": -39.92884505090326, "cuota": 0.9999158300236263, "summarising": -10.627379514593704, "1175": -3.820590716638838, "equestrian": 1.9367413691518993, "phelps": 0.9558166347277492, "visitor": -29.678345414008625, "hawthorn": 5.3778116197631105, "antioco": -0.9713743782677036, "water": -53.526089756513876, "tightening": 0.9773504465902351, "tomography": 6.6704510532012975, "ascetic": 2.87151942466885, "toroidal": 2.380732122199146, "chemicals": 47.23255968727918, "contradiction": -0.9698495314864222, "premises": 1.88088382390075, "verhofstadt": 0.9935247841431595, "houses": 0.4690342571803825, "heavier": 17.365487569268954, "girlish": 0.9676474100115293, "golly": 3.3160504315179367, "hashana": 14.014269747157305, "qtvm": 0.9978644315296816, "loqos": 0.9628888701844497, "qa": -14.796627720109381, "nuts": -9.612305259057571, "gloating": -14.11142930407089, "buckle": 2.380732122199146, "ordinal": 6.1835668887057595, "despairingly": 0.9906551751812102, "junctor": 5.7569817037960656, "preserved": 2.596837557817923, "281": -232.31808029815744, "aprati": -3.888441504802582, "wrangler": -14.013978088401965, "bhdczcr": 0.9813945203387939, "lounge": 10.615482186305348, "begrudge": 6.3553930444280455, "cms": -0.17564316627876705, "uniimited": 2.9509230314502095, "revwilliams": 0.9331827408484725, "cust": -13.755137794081088, "fortunel": 0.98028856599807, "installations": -4.624372884739984, "shipper": -25.87633864517657, "xvzkzuw": 2.8430249515043915, "chase": -49.33030256170344, "unutilized": 1.932640529605321, "ritz": 0.058124262289305915, "segel": -4.671175306486373, "corrector": 0.9721045038767125, "plugins": 16.15539735079893, "olivier": 6.507580191476909, "racer": -0.9797424398722965, "referal": -1.957519608668333, "our": 447.17333338553175, "namelijk": 5.5301436174689895, "secyonds": 0.9996026394138637, "java": -65.04404047205654, "rundownphonograph": 0.9749134321580203, "applel": 2.898019265137383, "races": -8.181282554695803, "36": 26.377496471712035, "likes": 61.105447363424425, "vincek": -2.858837162414778, "vbm": 4.420581712408808, "citizenship": -4.821980499969659, "saphale": -1.950492394361786, "budweiser": 1.8576548678629243, "networking": 24.947740231878498, "2001122105": -1.959230412374161, "pump": 17.953900299684264, "sop": 3.6011498010260907, "ejaculation": 35.253952563367264, "uswebcks": -20.949118270561453, "internationalpays": 9.63448306911138, "poland": -6.962552190278954, "kid": 7.031847570130228, "po": 7.306666457872926, "ery": 6.327108017483866, "abbreviated": -1.9371308999727916, "jryan": -15.080129817507746, "interstate": -20.754086648097072, "diaz": 26.79490908663831, "definition": -24.317103534943264, "frightening": 63.04753058991409, "pyracanth": 3.9102199968289453, "7568": -7.886037766872655, "8434": -0.01573587069925676, "shippable": -0.9459354709897411, "prc": -23.956642674960996, "educational": -36.08115355931341, "meerkat": 0.9742146256099876, "xglrb": 0.9978644315296816, "ov": 20.801122005359474, "congressman": 4.722579672754962, "achieve": 52.81789727739488, "captiously": 0.9416623766077934, "hin": 7.976056577883654, "nomeksdn": 7.593952289325485, "mvwawul": 0.9813945203387939, "176": -41.98751739675965, "clairta": -1.945935470989741, "subsequen": 17.343908736256314, "lc": 4.43629017892971, "vnjupo": 5.4915213429613345, "7053": -10.658134832472385, "incredible": 72.36886024064783, "667476": 2.8291525649332216, "ram\u00f3n": 0.9999158300236263, "mystique": 0.9882122884250623, "hypothetic": 1.932376275028334, "ntahtkf": 6.135946256491365, "chico": -29.943402541933285, "personne": 1.9929062326888785, "mepr": -3.8790144674487297, "patroness": 0.9676474100115293, "indian": -1.175925037827552, "oeya": 0.9934915076408721, "australian": -10.326550146710227, "moville": -15.162743628039172, "zvkoj": 1.8266744442334757, "nxk": 1.9227437063368247, "gambling": 6.896966161712056, "barnet": 0.9909233446408193, "analyses": -33.40308610197095, "focused": -73.0009963376273, "sixteenth": 1.880895568548616, "6707": 2.9784896774332466, "maintain": 7.466808646409758, "dutton": 11.962931933893291, "azwml": 2.753047246760924, "stapsgewijs": 0.9935247841431595, "cruise": -4.3414541048523, "commendatory": 2.380732122199146, "valiumstop": 2.998026899158496, "6022": -0.9796073764218365, "pid": 7.531081231856966, "excrescent": 0.9529137492635127, "preparation": -66.08528376047965, "boost": 49.079106075702086, "btrieve": -14.013978088401965, "xxm": 2.934764353427773, "acrimony": 2.7532449483333368, "000000": 90.63421489965177, "ernst": -4.589362089451153, "bullish": 12.825135895363017, "leach": 0.9990878323490666, "pacers": 6.735173850150038, "barbara": -141.66485472849308, "teletype": 5.575750042574349, "australia": -41.73688073897324, "contradict": 0.9674594956456718, "counterproductive": 0.9878795234021895, "kaminski": -1310.6580173859936, "fy": 10.412626670920838, "ppa": 0.10707008227125825, "aminitions": 1.9474720624188886, "backyardkatie": 0.9500617572733625, "frazzled": -12.343057249286023, "locations": -37.87659115510569, "captor": 1.8643140832030003, "odbtj": 7.593952289325485, "delia": 2.848355064194288, "intrested": 6.243398039818271, "washer": -0.9192261843009292, "13682": 3.6246430116409036, "ike": 21.09214067739214, "ambush": 5.5515404084397035, "1063": -15.636896594247862, "retort": 4.417169892203707, "mbfr": 19.031563741140133, "saegerr": -1.975719897978159, "aron": -0.9778730834202763, "doel": 0.9935247841431595, "snowbird": -0.9912169608374717, "copy": -239.98225775195695, "pgdqoq": 0.9813945203387939, "univac": 0.9737526694605879, "logarithmic": 1.9093665524173422, "rtros": -15.162743628039172, "scabbard": 6.440369486621867, "agm": 0.9875173967596517, "aat": 1.9525085589121325, "epistemology": 1.9457632161543716, "lace": 11.321253310522616, "wolfcamp": -15.080129817507746, "icph": 0.9846751919760566, "2481611": -14.845483497791028, "aweiezgm": 0.9813945203387939, "auction": -27.688267684014164, "fireworks": 6.768409246169777, "something": -78.75996484435404, "carriere": -1.9593713481485542, "vermeer": 0.9742146256099876, "eventide": 3.9825826872145806, "iraqi": 52.01643859212991, "porche": 3.715613139129056, "1962": -18.134090602128524, "sud": -16.31107070082271, "fdpido": 1.886564318585318, "assuring": 7.3186871049638755, "cofferer": 0.9814610733433685, "cwbp": 0.9978644315296816, "looking": 401.3190179125454, "ctp": 4.420581712408808, "half": 93.4803189063384, "chess": 5.363626042582178, "smartgirl": 51.046692805032976, "arranged": -6.984248469770255, "wylatuje": -7.642588833580297, "storyacquired": 11.873435759712335, "tang": -13.69038172063006, "buecken": 8.99870808873473, "illuminating": -1.9537300022902064, "distributorwww": 8.976489172413388, "tcainternet": -15.162743628039172, "betide": 0.9353183093187909, "arenaceous": 2.5669572162052647, "nad": -1.9523108573397199, "enhazncement": 0.9996026394138637, "radqus": 4.610028754812859, "tetrahedral": 0.9749095172753983, "gryffynn": -15.080129817507746, "butch": -45.02285312730611, "1941": -12.237513971237357, "ljuz": 0.9978644315296816, "qlpinhbo": 0.9979975375388307, "\u0096": 8.046612549939221, "gfjxx": 0.9979975375388307, "qvb": 5.956405824562365, "travel": 36.47532351611268, "earns": 66.37371665254047, "nkh": 4.420581712408808, "eightfold": 2.7849535401304832, "calendars": -35.25886574105792, "matters": -26.384678323882156, "gedcom": 14.440275529438939, "tail": 2.962732274879569, "spain": 36.963889122694376, "bedrijf": 0.9935247841431595, "bulletin": -7.889218609003056, "adjourns": -0.9689491084833549, "serapis": 0.9742146256099876, "kern": -57.43629213637102, "outages": -18.097337684072887, "blenheimdissonant": 1.8851647480479417, "colatitude": 0.9997102986859696, "interests": -39.44249722532694, "rhlrmmcob": 4.420581712408808, "paranoiac": 15.864650763108495, "apportion": 1.8924190255465665, "rating": -20.497303624594075, "nv": -24.574021621896723, "completeness": 75.93904527757496, "inks": 29.8677435203799, "roustabout": 4.378208980349247, "weld": 1.8496352308116921, "ctclib": 0.9925147444266752, "funky": 9.033162970691231, "5805": 0.9910407911194803, "undisciplined": 0.9586607969526554, "letting": -22.891718261557223, "turkey": -22.542700603479155, "2415": -0.9785934218227302, "ever": 305.5720485210552, "joined": -98.92199792119732, "watch": 320.685415692024, "zimmerman": 5.156616836735693, "mixer": -1.9140565817985362, "bearing": -0.01079920371287468, "believe": 231.56228480379588, "satiable": 14.2382499691703, "patsargent": -10.770319708889328, "liffe": -29.933967674814188, "forbids": 3.585431547298633, "kassim": -1.975719897978159, "iacute": 32.780005128496235, "169": -67.43156491560492, "freundlichem": 8.99870808873473, "pfysvxopk": 1.886564318585318, "populates": -0.9772838935856606, "weh": 10.874782479334314, "invulnerable": 2.92261843009292, "sace": -1.975719897978159, "jittery": 2.380732122199146, "barryrobinhoo": 0.9673811979932312, "ptbxh": 5.166059533620033, "comme": 2.9809971597526577, "infantry": 0.9936696348001746, "crack": 41.98271383578242, "rice": -525.2456334377955, "refrain": -0.045571191161761, "establishing": -85.97557896220377, "osu": -15.080129817507746, "netware": -14.013978088401965, "boucher": 4.396283993415167, "confute": 8.408402512571667, "mtedf": 5.166059533620033, "rival": -5.820255994174655, "uf": -1.786811151934637, "ville": -8.202156708836478, "citgo": -6.748408110853816, "ordinance": -1.9301467493750868, "dialysis": 10.705502954757659, "dfikbaqugvipevwbi": 3.354224451965369, "zqvqojgie": 7.593952289325485, "key": 18.094401522106363, "absolution": 3.4669809012451283, "lecoultre": 37.62820751226826, "ereplicasonline": 0.9655705647805415, "tzcwrlo": 2.8430249515043915, "aviod": 7.027693879668253, "streetcar": 17.858034611477258, "schlafzimmern": 0.9975786450982733, "aid": 85.58066126282368, "contracted": 14.96196887276827, "mila": 0.4817517533780543, "naomi": 3.7427334884931813, "292249": -4.894405828477248, "mfdab": 16.273501529740386, "sou": 0.7982563112801471, "elections": -9.877286046771102, "rational": 1.338944665091578, "assassin": 0.970935911414036, "totzzil": 0.9639967819664846, "6030": -10.197954082341726, "dorsey": -10.329719244192761, "txixsxhn": 7.593952289325485, "incline": -2.7472414758324506, "ac": 34.20753575755914, "owning": 46.951629667763484, "adrenal": 0.9912247906027157, "federa": 9.49677315799879, "eddying": 0.9704132745839947, "929": -3.7130606356594913, "footnote": -54.130741420045375, "hmxfyoisv": 1.8428213776080458, "clpm": 1.886564318585318, "accost": 1.9093665524173422, "1117": 6.5953694768346605, "solstice": -0.9626383176966397, "bigrandomchar": 8.622515272935829, "resemblant": 14.740049836455778, "components": -48.079145224528304, "pagerank": 12.918006698364167, "purchased": -38.70682422764259, "hongkong": 3.839023941464675, "interoffice": -0.9786227834423954, "coiied": 7.331655153649356, "2002012105": -2.7497528730344842, "siz": 18.762767900311427, "perilous": 0.9524008996400265, "mabo": 5.794257258681742, "tarr": -1.9338795899551942, "nrvdkvbfbr": 5.973067565001732, "akdp": 4.420581712408808, "applets": -1.926586163630349, "horsemen": 0.9353183093187909, "oceania": 11.674778955939953, "daybed": 0.9737526694605879, "vyiwyqlg": 1.886564318585318, "departmentpaypal": 0.9871317808213815, "featuring": -16.97083020958324, "hither": 1.9381115780696105, "ueh": 4.420581712408808, "buff": 2.956640717519687, "ct": -15.345547114633636, "macroencephaly": 0.9742146256099876, "denying": 0.9994362569024274, "376": 0.009775461907213368, "dues": -38.418555760651905, "sehna": 3.057950050012625, "ppfont": 65.52400703895896, "whs": 1.9036723556435968, "squirts": 0.974512156689262, "pq": 0.9670836669139568, "2554": -4.889551374025928, "2002012007": -1.87473745818416, "bob": -283.4831454515915, "completed": -87.66761863562425, "freeworld": -1.975719897978159, "brmilwaukee": 2.844048693310053, "riempie": 0.9742146256099876, "aberrant": 4.417169892203707, "surfacing": -3.7305640758625955, "ini": 17.1643839638578, "remonstrate": 3.6246430116409036, "improoved": 2.788929103433155, "tally": -5.5332011407967965, "ion": 79.04402285508475, "blanked": -0.9793548664927154, "79228": 8.84658553724913, "oytap": 3.5965498139452032, "axxxmovies": 3.791978796995719, "roaring": -2.045238426138889, "within": -73.51740850429952, "wedding": 0.04397196161066108, "dub": 4.378208980349247, "eee": 27.221744824035813, "coral": 10.172793131729927, "reative": 12.055808609218374, "hronline": -11.590393661022059, "sections": -10.39935326139084, "crimp": 2.936606305701439, "petroleum": 7.32468666258214, "est?o": 13.940022040789161, "ripley": -0.9769648306519649, "9848": -2.9359114140360285, "logiclsales": -15.080129817507746, "staycloser": 1.5965596011517584, "hindrance": 19.724640858455462, "ggayle": -1.9803394594721564, "avscanned": 0.915749768532565, "estimates": -81.19885059046217, "cbcwojsqymyv": 1.886564318585318, "unsure": 37.63319115784611, "eats": 3.7229202675430786, "bath": 2.89899602835158, "nocturne": 3.5444975346026686, "rain": 4.891172135431449, "yahoo": 196.3438695874301, "seen": 159.43226372215295, "ihodden": 0.9742146256099876, "healy": 0.9883179902558572, "tallies": 0.987065227816807, "520228": 4.575129533678757, "1672": -3.9115001634463495, "impede": -2.9375967710048134, "196": -21.367450882903903, "clu": -10.994145293038752, "cautions": 33.583086532608036, "7722": -1.8845285796218614, "aroung": -14.931567851766884, "minute": 110.1753671670539, "4187": -1.943441690759507, "sebwdjp": 6.135946256491365, "httpd": -0.9993011934519673, "przedsiobiorstwie": -35.991731767902266, "wagon": 11.952261921306942, "centana": -1.9592597739938262, "injuries": 68.14312027889623, "456280": 4.575129533678757, "historica": 3.9898173903000953, "cybernetic": 5.595729646035887, "scholastic": 3.720512614730529, "celle": 0.9478831250942019, "boogie": 5.611563388800695, "brigadier": 4.56482752005888, "urgentely": 5.79284790093781, "ppniemfwkhkmeduh": 1.886564318585318, "7099": -2.860318945487217, "theevltra": 1.9186467816728685, "inquirer": -3.7130606356594913, "lately": -22.962945635982468, "toxv": 0.972537098406447, "infrol": -0.9698495314864222, "revamped": -31.69460196409661, "dupred": -0.9799146947076659, "represents": -66.88814984604724, "assaying": 27.78407660642315, "orderly": -2.745287949404057, "sberry": -15.080129817507746, "considered": 195.40491435215543, "financewise": -38.63100078101908, "convened": -4.865478760783055, "replaceable": 0.9660638399909175, "maladjust": 0.98028856599807, "pyramidal": 2.889655118415412, "amateur": 43.16397094374118, "finer": 1.8956409739444986, "dbbl": 0.9657193303201786, "drip": 8.04767152568848, "ava": 6.355349980719203, "serifnot": 3.611019220116233, "delightful": 2.637139316970429, "uacp": 1.9992835764801682, "ruxtracy": 2.741514002556418, "ral": 3.5710541408692213, "arxits": 3.5965498139452032, "67": -68.62803917231551, "brec": 22.586386778658408, "quicksand": 3.7229202675430786, "grading": 12.823158879638893, "datum": 16.840818915146876, "onlin": 5.384355346065837, "squer": 8.019063520927984, "ikenberry": -257.1826253594352, "bristol": 0.9529137492635127, "alexander": -65.44209203497556, "reselling": -2.936071924223532, "1749": 23.300557283541245, "9676": -0.9728228848378554, "mayfield": -13.067124577437356, "godefroy": 0.9742146256099876, "jpgtextarea": 3.7121308510367585, "cronk": -55.45935470989741, "ansi": -31.197315956474334, "ideals": 11.4915154706374, "raxte": 5.973067565001732, "oemdownload": 3.6001378038682956, "1050": 4.16827144230148, "vetmsl": 5.973067565001732, "seized": 20.897351777650325, "scripts": -0.5971938121365277, "nzsqcrjue": 1.8266744442334757, "phoneme": 0.7982563112801471, "twaller": -15.080129817507746, "functional": 16.31438073407964, "notably": 0.09261437818940595, "allele": 0.9478733378876468, "solidus": 13.821440246167818, "expletivewinemake": 0.9751522399979643, "purchases": -129.12549939221446, "fioat": 10.143073300304774, "liven": 0.9672891982516134, "ignorance": 10.189229766418528, "bandbs": 2.796621847785449, "disclaimer": 90.08586707799033, "resolution": -152.81608272929958, "does": -159.09537241299662, "fingerprint": 2.8329167245743054, "scheme": 77.98429544836172, "6357": -3.9140918157421347, "uunderling": 8.495624139949225, "moroni": 5.633128519724157, "joerg": -1.9270481197797487, "chewing": 10.750500615615293, "reno": -18.072899029304853, "discr": 0.9500617572733625, "fbi": -0.992358149121794, "886": -1.2612714364291573, "revolution": -30.71887423635321, "stearate": 0.9882122884250623, "deveioping": 20.339113005044325, "pomoglo": -1.894562423782129, "ivanhoe": 0.9558166347277492, "shining": 0.22872505975089602, "auqwsun": 4.575129533678757, "naturality": 0.9872237805629993, "iyy": 4.420581712408808, "martina": -0.06400441598759765, "obligatory": -17.513511238649286, "neuhaus": -8.23626708112224, "demianenko": -24.324467429155305, "ron": -106.74687543430728, "aqzc": 9.567646235546743, "burnertip": -14.931567851766884, "electrolytically": 1.9777673815894814, "arrest": 3.784344775882757, "ca": 59.45489174370829, "strangers": -2.930665471322506, "titlestyletd": 6.633304689442149, "fozzie": 6.486737356397212, "oxqbs": 1.886564318585318, "everthything": 16.35492521595471, "pll": 1.8150687747004626, "politicstattoo": 1.923009918355123, "langeland": -0.9799832051535515, "yearly": 17.277048413395946, "ronan": -0.9904457289609314, "boling": -7.776131352141735, "cougars": 0.9619688727682723, "voting": -49.643626277475136, "unsatisfying": -14.929031007827806, "boson": 4.2891512730219565, "lwnamlj": 3.5965498139452032, "mbfwvzcebr": 3.6201917900996534, "girlfriends": 9.728825867978413, "invoked": 3.538652614847975, "physik": 0.9403978695208771, "naive": -0.9714605056853883, "jerilyn": -0.97955648294775, "miracleburn": 0.9997690219253001, "radiotelephone": 0.4817517533780543, "buinesses": -1.957519608668333, "webscheduler": -0.9713880803568807, "kerner": -0.9904457289609314, "phacy": 2.7932452615239463, "analysists": -13.63190316146346, "collition": 1.9218687300708006, "incondensable": 0.9889717756537365, "abbpge": -0.9563862501492549, "dalf": 8.510160099124828, "okgzf": 0.9846751919760566, "pumpkin": 0.993974995644693, "superhuman": -0.9759038974613944, "grtkbso": 2.8430249515043915, "843": 6.93487397014119, "uftkcuj": 3.5965498139452032, "09003": -1.9864075275363056, "bicarbonate": 0.9737526694605879, "quantified": -2.935310479553547, "lrl": 0.9854092324676875, "naax": 74.91409573062475, "5377": -3.8714744035186963, "sflzdk": 3.5965498139452032, "rouge": -3.9230921308901854, "segph": 0.9875173967596517, "618": 1.6469147788776421, "cobaltl": -0.9993011934519673, "koncu": -0.9912169608374717, "stabilizator": 6.327108017483866, "manage": -295.63249039385676, "cplex": -8.214919226184302, "200501160908": 3.6001378038682956, "wvxge": 0.9979975375388307, "bellman": 2.7532449483333368, "pent": 0.834821314969924, "catfishnesbitt": 2.758144423934809, "horizon": -20.731076925486082, "deploying": -20.78539983674939, "denis": -0.9718187174453042, "22628": 15.339872492273, "safnjye": 3.6201917900996534, "priorities": -50.70534244457016, "sjustforfun": 4.420816605366129, "ziplink": -16.802821064417437, "cheannach": 13.995533118928261, "lohdosvu": 4.420581712408808, "kahn": 12.046994250994869, "dadaism": 1.9431793936238306, "paper": -143.85435070692992, "windbreaker": 10.976125088329539, "friedland": 0.9558166347277492, "waaant": 1.9347682683103953, "capability": 4.839851939139235, "kohlrabi": 1.880895568548616, "ledzep": 11.577850377101068, "links": -186.07542412859607, "webfund": 8.308336155311224, "ultr": 0.6410189656488623, "billfold": 3.7666142724875753, "dec": -23.327798994266658, "scheduling": -555.7744949312057, "500599": -0.9728228848378554, "rebeccaurchin": 0.9751522399979643, "necessitated": -0.9676689418659505, "congested": -0.9736254357753719, "grissom": -0.9799832051535515, "ciahlis": 0.9353183093187909, "lsld": 0.9978644315296816, "scmyfmdh": 1.886564318585318, "digitize": -14.937960855088662, "xj": 0.9749212619232643, "90027": -21.49025683587442, "aaas": 0.9626481049031947, "upline": 13.995533118928261, "cription": 3.5777290157397856, "undelivered": 38.31098457340503, "longd": 0.9863703361513964, "prescsription": 1.9222191120654726, "demonstrable": -0.9996652775358162, "thousand": 278.4682963018061, "mroper": -0.9795466957411949, "inequivalent": 2.7532449483333368, "dearest": 10.775788799912306, "foregrandpa": 0.9524008996400265, "gu?rant??": 4.141021901810828, "goughary": -3.9614697252339632, "disruptive": -4.995157290196547, "dobbin": -7.553993082402407, "ggije": 0.9884785004433605, "ort": 17.536162749500363, "nominate": -15.79082586406353, "inyhoc": 4.420581712408808, "airfoil": 4.629656018838415, "zipmail": 1.8774034932497636, "iorefi": 3.6804555357418995, "insists": -0.9675749846830217, "medzz": 1.9215398799305499, "aqfrg": 0.9875173967596517, "tablebrbrbrbra": 3.8714548291055864, "exciting": 16.47050625304627, "holly": -10.485970039403293, "lifesaver": 20.688177641713857, "flight": -27.413262839346917, "682229": -0.9901990913557435, "aanpak": 0.9935247841431595, "opybebizd": 6.135946256491365, "thumb": -7.445398153349867, "changeover": 15.032693184776587, "averse": 6.038847380258422, "badge": 8.911331823493601, "pike": 4.623047696972425, "infiltrate": 4.590180299919158, "ordvvydqn": 4.430014622086594, "ejfd": 4.420581712408808, "887": 2.0095679731282456, "lmvsup": 0.9978644315296816, "diagonally": -4.5501780292872365, "console": 1.9475953812214826, "careers": -55.14793949940396, "coalescent": 1.953571449544014, "hzbtfqjyj": 5.973067565001732, "panelists": -11.541657287260385, "2227": -9.995981372988485, "yof": 7.976056577883654, "noa": 5.677274693611499, "soreness": 2.777900879086893, "gu": 4.420581712408808, "appreciative": -1.94876593112547, "fontve": 2.8796271465790775, "irrevocable": 0.9748958151862211, "nouz": 14.917448827590526, "siobhan": 7.366618970346721, "freest": 0.9483724854219558, "catchword": 2.5837853391560683, "montrose": 0.9999217023475594, "timesheet": -10.690140955348806, "cavanaug": -15.080129817507746, "handwritten": 3.3744037144406316, "pentane": 4.347602428010202, "smal": 21.707556310692915, "fidelity": -2.9332982298858226, "handed": 2.937087836263949, "nicola": -10.175036359472351, "integrate": -48.108757396681355, "ydol": -4.880175230146162, "9010": 18.44010718948619, "sandblast": 1.9286023281806952, "jabverbiage": 1.9208802222087376, "cafe": -10.645481931837978, "arrows": 0.9996065542964858, "538": -15.642089686045988, "bedim": 0.9653297994992865, "fatten": 2.43725324005473, "lecturer": 9.590299703839129, "2002013010": -3.920927200800202, "hairs": -19.899867089734983, "bassi": 4.794513683493484, "lynna": -3.7602486733441514, "refers": -7.650369662791586, "pact": -44.228047785057285, "intestine": 3.334628507000789, "emerging": 15.597945469599956, "lekhnd": 3.6201917900996534, "saugkraft": 8.99870808873473, "birch": 0.9990878323490666, "scovill": -9.538445126069007, "responda": 0.9993618741326088, "4500": -8.612428577860165, "0221040": 2.840368703645343, "balletic": 9.824033855904915, "userl": 3.841932699252845, "banerjee": -2.9149863664212687, "uncanny": 28.831720727933273, "neuroanatomy": 3.8698634293197305, "saf": 7.976056577883654, "controversial": -63.04720565465646, "delimitation": 2.45619344218012, "harrow": 5.272922127112324, "pubescent": 0.9670797520313347, "needed": -45.142675939718636, "ticketed": -0.9762151306298459, "ztclgxpbpj": 0.9617261500457063, "overseen": 5.571848862041493, "clique": 16.394888337760413, "alone": -81.56570836864884, "babysit": 2.8972049695520004, "mustache": 0.992849466890859, "minimaanorthite": 0.993974995644693, "neighboring": -31.751408868383603, "brumidi": 6.007751467591623, "clearances": -1.950492394361786, "punishes": 4.534160287039194, "chosen": -38.68656079519096, "earmark": 0.9737526694605879, "wf": 19.548933096613432, "hqfox": 0.9934915076408721, "brunt": 1.9458571733373005, "eunomia": 0.9935247841431595, "cozen": 8.732108497056988, "commands": -13.687328112184876, "611": -1.9149335155058713, "wicek": -1.9429934366992843, "donovan": -12.39079532797908, "loike": -5.4865670590031534, "entering": -59.69515983487025, "cede": 2.890657328366652, "nomd": -0.9776107862846002, "3939": -1.9178031244678206, "alveolus": 9.074852555733248, "imtln": 6.074594173480193, "feng": -11.245347651364042, "embroil": 1.936085626312709, "uvbzbeezt": 1.8428213776080458, "stanleywoodwork": 0.9554838697048765, "angles": 1.6708033926372803, "herrera": -1.9596258155189863, "crestfallen": 2.866948799207628, "fozziesugar": 2.770282517504419, "aide": 11.269590562000975, "bluebill": 1.9389885117769456, "vouchers": -4.902176870481981, "mccleod": -1.975719897978159, "beautifu": 1.867596712281574, "tying": -28.83540854736323, "mbg": 10.6802069406954, "114514": -0.9562629313466608, "8000": -23.07957586161673, "cquerol": -1.975719897978159, "grenoble": 0.9626481049031947, "bpepperll": 2.844048693310053, "erlfdqs": 1.8266744442334757, "conclusions": -58.70614303806636, "leaves": 54.16101324992023, "anbrnv": 0.9978644315296816, "prof": -278.1389920351713, "updated": -53.75075704042703, "miranda": -46.79359955840124, "iles": -2.903550994282314, "thinkpad": 1.9691428951731456, "quicken": -41.30789768845756, "informationen": 13.64028101027461, "da": 191.3847566215346, "stars": 41.35717235857976, "blanket": -6.814432606274382, "waldemarem": -1.9484175065721092, "energyevents": -14.848621276212585, "1882": 6.655621477829041, "explosives": 31.775360120265194, "personalfriend": 0.9736684994842142, "09360701": 0.9328010397928244, "barony": 0.982500474679518, "fftce": 7.593952289325485, "droopy": 18.632686137987868, "bifvdb": 2.7496295542318903, "invoiced": 19.288748040111887, "setscrew": 0.9483078898586923, "hdgvnkano": 9.567646235546743, "distances": 25.865940716932453, "arn": 3.751175932867593, "preis": 8.99870808873473, "serious": 31.182237786055577, "analytical": -1.686556880308336, "greenblatt": 2.986834249742107, "immodest": 4.576323572878476, "pricest": 0.9887251380485484, "rents": -0.9797424398722965, "526": -19.66381336971564, "wadi": 5.195354600280697, "bombast": 6.130672909599488, "penninite": 0.9742146256099876, "37008": -1.9595201136881912, "bracelet": -10.944212922636046, "feature": -130.94736048826417, "mods": -1.9597041131714268, "955705131": 9.324134664132433, "yushchenko": 5.571848862041493, "knit": -4.53819848846382, "plato": 0.9478733378876468, "06": -420.7616697757359, "mold": 0.9878795234021895, "gss": -7.446846659920019, "baseplate": 2.8814710562940546, "pee": 4.786286557663285, "outlawed": -40.18894789486974, "adapted": -0.9602600265037553, "intereste": -14.003251310017596, "humbly": 11.40758038722104, "alba": 2.810468787619575, "rupee": -24.63585132058778, "ms": -56.26097977767381, "tsujfm": 0.9736606697189701, "soybean": 0.9478733378876468, "will": -678.0796600315931, "tedious": 0.9936285285326433, "fantasies": 15.108796545507573, "maniacal": 1.916979041675883, "nly": 2.8618379199445654, "always": 8.58328619162176, "jybb": 0.9854092324676875, "recive": 7.699851821692755, "cfe": -0.9714605056853883, "ranks": -8.598428957603778, "rs": 1.6398073094773444, "knockoff": 1.9708811030573277, "emerge": -45.16126771729066, "laugh": 6.535599006402791, "investigation": 138.98577918887548, "sinter": 13.270982302773106, "diagnostician": 9.718970150977448, "mainly": -36.984667362210814, "ability": -57.048360545029965, "ureach": 0.9736684994842142, "ltsd": 0.9658680958598159, "sensational": -0.9692035758537869, "jhxc": 3.354224451965369, "ablator": 5.075488724159328, "0390": -0.9786032090292853, "saturday": -260.41554325847426, "lmcrn": 0.9978644315296816, "autoregressive": -2.936404689246405, "964": -29.42012954346596, "ocal": 0.9546989357391592, "hatfield": 1.786174983508557, "bryan": -72.67373368227987, "unwanted": 24.58415333812254, "accelerating": 0.9566955258763954, "incidental": -19.48413004457094, "reemooooooveeeee": 6.258932294062493, "harriet": 1.8933116187843897, "146": -49.497440645485845, "445": -2.5002495737671544, "ihnlply": 1.886564318585318, "mtv": 1.9873412270416602, "vcupid": 1.8905418393293023, "106": -50.16961816192346, "ucy": 14.622102252819204, "factor": -37.57572068095468, "facial": 5.56608028249793, "failed": -254.85950856478445, "269": -55.54881760757608, "sly": 6.188204067171556, "desicate": 5.386338234113896, "crease": 15.60122614123722, "compute": 3.569542996177117, "scales": -15.01140992540191, "diving": -18.758387146657377, "caanaheim": 51.046692805032976, "amb": 7.3245555140143015, "lefttrtd": 6.633304689442149, "powde": 3.6201917900996534, "5404": -2.880384676366441, "739": 1.020320198249656, "bhk": 0.9884785004433605, "basilar": 4.790103568219766, "reefer": -3.690980697671232, "rotations": -1.9362285195284132, "dicranoid": 0.9905436010264822, "reviewed": -0.501727441956973, "mariam": 3.744172207856778, "mobiie": 0.9936285285326433, "cws": -0.9690097891639964, "racking": 2.610381094248842, "timv": -15.080129817507746, "transo": -0.96329406053583, "333333": 3.7121308510367585, "secured": 84.61797988141821, "lch": -1.8532056037629852, "lafave": -0.9648678433498867, "attain": -8.686153647398267, "quantifying": -17.00057940262806, "mikebusch": -15.080129817507746, "ceos": -2.138543781111083, "raffia": 0.9645546527401242, "afore": 1.9992346404473929, "defaulters": -2.9149863664212687, "cgwd": -15.080129817507746, "jurisprudent": 1.9093665524173422, "raptor": -1.0079569989292796, "genuine": 198.57504340626107, "fbbwtwo": 0.9906551751812102, "neely": -1.8532056037629852, "obligations": -11.295344617330011, "zulie": -0.9799832051535515, "wrenching": -0.9925852123138718, "spending": -14.290337482456433, "bayport": 2.6202916196065154, "nooypc": 3.6201917900996534, "lines": -63.72305728843485, "tweedy": 2.8907317111364708, "magnanimohs": 4.430014622086594, "plainness": 1.898612369854621, "roject": 12.055808609218374, "iibnvi": 0.9744632206564867, "gmj": 0.9875173967596517, "clit": 0.9555719545638723, "rmg": -4.794768150863916, "trusty": 12.230300800006264, "pkl": 8.261420201968795, "impudent": 1.8496352308116921, "herself": -26.83887909080766, "uuhux": 0.9997357454230128, "honors": -1.9781745293821729, "ear": -6.059459237263418, "disregarded": -0.9537554490272495, "seguinte": 0.9993618741326088, "restrictions": -126.90521090451405, "hititapped": 1.9351421396007995, "medicinal": 0.9686398327562143, "hanukkah": 14.014269747157305, "cinco": -12.985229147867074, "meriz": 2.844904095162967, "sedayao": -1.9270481197797487, "zeil": 0.9846751919760566, "vroxrfqmvlorowo": 9.567646235546743, "wolivare": -1.975719897978159, "holocaust": 1.1587093414971685, "burned": 14.857044146173887, "892261": -7.670229862333152, "bello": 1.9329693797455718, "eggleton": -2.911844673117088, "garrisonian": 2.9059508173296194, "obesity": 12.37804651272043, "pronto": 25.31233716535094, "ity": 9.173881469098852, "pnwipsfjr": 1.9988059608002804, "aboveground": 0.9737526694605879, "mz": 16.769797072059283, "scratch": 15.877141196114087, "culture": -2.0215416416277296, "floored": -4.568452701366882, "suppeer": 2.834711698256507, "halvor": 0.9906551751812102, "irrevocably": 22.22543460090708, "bdgbaqs": 4.420581712408808, "sequence": 14.622102252819204, "wbheyh": 2.8430249515043915, "history": -28.579183394633873, "dnngfqkp": 7.593952289325485, "guarantees": 25.515781870570066, "icensed": 0.9936285285326433, "mciworld": -15.080129817507746, "zw": 17.73970924166766, "browsers": -7.7310906275752584, "wmwcai": 0.9978644315296816, "rodrigue": -0.9882318628381724, "697919": -1.923379874762905, "jrzktfpizmq": 9.567646235546743, "workspace": -1.5916640404329079, "contractor": 39.73908677533076, "muggy": 4.378208980349247, "julio": 0.9999158300236263, "dorcas": 3.916397681606511, "akhara": 0.9742146256099876, "gemlike": 1.916979041675883, "23825": 7.471811866400715, "surrounded": -1.950492394361786, "threatened": -4.91741750852955, "method": 33.827124655735005, "particular": -30.4767132994435, "rfccpy": 0.9978644315296816, "plausible": -0.9763952152304594, "insuring": -12.874269629710827, "fit": 15.41393619915791, "orphanage": 29.747830665667067, "writetn": 1.9219803042255286, "proceeding": -9.717439431872235, "installment": -6.526804222592396, "hit": -134.97599002487908, "phoenixl": 11.667060764850618, "transgression": -1.9803394594721564, "beatnik": 2.97793767898354, "rankings": -49.6573381538588, "btgzp": 2.8430249515043915, "enrolled": -4.858075717744793, "indebted": -1.9015093829949243, "worthiness": -51.65660802824979, "afro": 0.9883179902558572, "expatriated": -3.690980697671232, "journeymen": 2.866948799207628, "kredytowa": -9.014573150560514, "starfish": 1.94481581455984, "jerriw": -15.080129817507746, "mpeg": 12.229006931299681, "jrs": 0.9875173967596517, "seraphim": 0.9883179902558572, "jere": 3.572590732298369, "garish": 0.9672891982516134, "spacing": 11.143002832417576, "ojsdm": 0.9846751919760566, "liverymen": 0.9353124369948578, "peacock": -15.080129817507746, "gathers": -9.318301489025606, "rojas": 0.9936206987673992, "crap": 113.76554942441439, "totaling": -3.529192300991835, "trail": -14.394641700155224, "variable": 0.8772077491186616, "98195": -0.9765322361222305, "sultan": 1.964039845675327, "tempted": -0.9755241538470573, "empresas": 1.8828490949770098, "jand": -15.080129817507746, "impractical": 1.916979041675883, "discourage": -53.57207005290964, "platform": -19.13344464649589, "jebgxoyxd": 3.5965498139452032, "receiving": 35.86529671874113, "harker": -2.9591403700738543, "reception": -21.307525774608465, "reliably": -2.941952077921824, "ew": 1.8748118409539787, "2000208": -0.9539648952475283, "sonata": 3.560194256475705, "annulus": 1.9352693732860153, "importer": -2.745287949404057, "reds": 12.922929663261371, "functionality": -27.589487365695057, "sinh": 6.162837585222101, "salsa": -4.41185739648561, "cumulatively": -6.351350928120798, "8833688": 13.181225788897784, "redesign": -2.896905481031415, "views": -85.94637785272603, "dwidth": 1.8626130667037275, "shanken": -4.570719418405037, "laplacian": 0.9737526694605879, "cancellable": -3.673375470519955, "posway": -3.9614697252339632, "printers": -2.943343818693956, "halgodal": -15.080129817507746, "turtel": -0.9988451096265006, "7171": -5.733650960810068, "hnpi": 0.9884785004433605, "multiread": 8.016007955041488, "97929": -1.9567013982003285, "evelyn": -0.012302518639734885, "fhulej": 0.9979975375388307, "alump": 15.84390580009435, "fulfilment": 2.6850065867900117, "rental": -16.83502488886627, "boxing": 4.698309357939675, "funeral": 24.75886476233726, "gps": -3.690980697671232, "gladys": 0.9672676663971922, "zacouras": -3.9614697252339632, "strung": 1.8496352308116921, "manel": 18.930894491955893, "beguile": 4.673447895848462, "iwl": -55.45935470989741, "phosgene": 3.1552564150245352, "teleteam": -15.080129817507746, "carmela": 1.5843588694601962, "holmium": 0.9882122884250623, "workaround": -3.916237171419008, "proficiently": 5.968359918648739, "ldeos": 13.951950688138492, "forney": -3.9614697252339632, "rd": 23.475566238835246, "interceptorschiller": 0.993974995644693, "joyegarrick": 4.1191005165687615, "shoreview": -55.45935470989741, "136": -41.534790583141344, "stoness": -1.957640970029616, "jwkb": 0.9884785004433605, "aeneid": 1.950966095159052, "baggage": 1.8723278479302994, "weakening": -13.749817468597747, "structuur": 0.9935247841431595, "ete": 0.9500617572733625, "ofhappiness": 13.949306184927309, "kris": -10.686946411129227, "krishnarao": -70.67075837148712, "poder?": 0.9993618741326088, "joyous": 0.9529137492635127, "explained": 18.76040331120772, "bozoawesome": 0.9619688727682723, "dleftfont": 18.762767900311427, "profits": -56.33398255136815, "606": -1.9149335155058713, "admixcarcinoma": 0.9522266873633461, "death": 255.62206310399299, "pkgu": 1.886564318585318, "treo": 2.9972223907796685, "performer": 0.011588052561214084, "youur": 0.9619062346463197, "guttural": 1.9227926423696002, "eoadcaj": 12.67803026595755, "didar": 0.9736547973950371, "tricks": 3.0441677057417627, "shorts": 10.978622783442395, "barbarism": 4.378208980349247, "middleweight": 5.554830867283521, "sailor": 8.470545401872489, "afterbirth": -4.533046502933225, "terrible": 96.62706045166001, "computers": 108.64417436104222, "wrongfu": 10.272745957394333, "dermal": 26.028723493797848, "freda": 1.8644178275924843, "nmlve": 2.8430249515043915, "aere": 1.8905418393293023, "scams": -18.47615934355248, "ppu": 4.59663985624551, "gvmslnd": 12.67803026595755, "6891": -15.03618721751675, "ecast": 2.9099126785431157, "adore": 13.605415065642795, "inca": 4.378208980349247, "extending": 36.52630898994071, "srcrrudn": 1.8266744442334757, "roads": -4.398969602893882, "aimlessly": -14.387915931810573, "wound": 7.6416492617510094, "pylosdsns": 12.67803026595755, "incomplete": -3.7592308038624234, "belize": 44.35276615818866, "mgbabyface": -1.975719897978159, "stab": 0.992849466890859, "904": -1.868338582538449, "lap": -12.205595933219932, "save": 90.15320501653059, "florin": 5.051339770705325, "immense": 2.485535487432248, "privileged": -102.23337789774718, "thecertificate": 5.390212010468396, "robertsl": 0.9852585094867393, "quicktrade": -0.9713880803568807, "amir": -1.875244435483713, "azil": 0.9622468294344365, "hardons": 14.061686805475354, "tenant": 2.828669076929401, "duffy": 0.9353183093187909, "slh": 0.9617261500457063, "czasy": -12.319771527450179, "hvere": 0.9996026394138637, "alec": -258.3776765563126, "fbhtrcjv": 3.5965498139452032, "dlan": 23.77899704622106, "spsh": 0.9846751919760566, "hislalls": 1.9186467816728685, "ideologue": 1.9150998980173077, "gypsite": 11.697575317448045, "cashiers": 0.9995948096486197, "internetgebruikers": 0.9935247841431595, "hottlist": 2.844048693310053, "blennioid": 0.9905436010264822, "ukmo": -12.237513971237357, "59899": 0.915749768532565, "stride": 0.9626481049031947, "gosul": 0.9979975375388307, "ranked": 0.0642882449776927, "helga": 0.9441933482229369, "mfwoldrhu": 7.903484441277739, "eel": -2.005308580835475, "osman": -36.415044110939945, "pupate": 1.932376275028334, "hangar": 1.9670288585572484, "azsevkd": 3.5965498139452032, "magnesium": 2.890025074823194, "intelamd": 1.9836592799356394, "timestamps": -0.9763952152304594, "kccoe": 0.9749212619232643, "smaki": -3.88889954606936, "overpull": -12.014579022884446, "unobserved": -9.663742901828446, "shortcut": 1.8903304356677126, "escherichia": 0.9672891982516134, "felon": 0.9872237805629993, "cloy": 2.4486377187195982, "popplewell": -55.45935470989741, "yieided": 0.9040012057838476, "socinian": 0.9742146256099876, "cerebrate": 0.9745336885436833, "sustained": 31.835792205860187, "alias": -232.10686063605098, "721584": -5.704786531237827, "aesthetezeroth": 8.79259734845, "siana": 13.479937205282743, "shedir": 2.380732122199146, "tania": 0.9739307966198903, "6060": 0.9910407911194803, "cmb": -1.9307046201487263, "underlyings": -28.981482605197787, "fasl": -14.066502111100453, "weights": -9.804614080658327, "iekouqi": 7.903484441277739, "erupted": -4.9360112435428904, "mead": -89.19102865498336, "no": 637.3226959447688, "eastern": -26.8513421196349, "colon": 7.658330576603487, "mari": 16.97653027868092, "audience": 3.246109096034028, "reza": 4.505391772091193, "cragg": -0.9904457289609314, "geology": 29.701055648099032, "rechauffe": 1.9227926423696002, "chales": 0.9970188168833228, "avi": -19.804614080658325, "bipolar": 17.350413313732822, "fungoid": 6.250536828279546, "rgjlvb": 0.9979975375388307, "ztnjcl": 0.9884785004433605, "at?": 13.995533118928261, "mydvforever": 6.189278702451304, "bernstein": -22.989206668611057, "debug": 2.4293079857733164, "invitation": -108.51805054504953, "slewis": -0.949869928024883, "zfu": 3.7322729221271125, "oarcp": 0.9813945203387939, "sniffly": 0.9478733378876468, "contacter": 0.9441385398662284, "sidelines": -2.9149863664212687, "armholes": 1.9777673815894814, "ihidtmny": 7.903484441277739, "tabloid": 2.380732122199146, "ticketing": -6.839703173599598, "perfusion": 0.992849466890859, "lefsqwle": 0.9913813859075971, "acworth": 9.63448306911138, "scan": 5.883412838074582, "enajobsl": -6.8065265008191895, "996": -9.417741465066523, "crm": -6.776626584793421, "cshirley": -16.802821064417437, "detective": -0.008313253247884496, "morrill": 1.8496352308116921, "swimming": 5.8759706462101, "lehman": -7.680567109896628, "somewhere": -34.733989598156874, "hx": 3.604637961442321, "06090404": 7.172988875861029, "anecdotally": -1.9184236333634126, "niechetnie": -28.26390223755116, "engagements": -1.957519608668333, "qlwkejrp": 8.510160099124828, "seagram": -3.690980697671232, "indications": 8.61665860853327, "approached": -8.776755775919948, "flowed": -10.61898992113469, "bwxlnaj": 0.972537098406447, "descend": 3.875140691094229, "moongates": -15.067406448986143, "bakery": 35.53807712710254, "horvsl": 0.9934915076408721, "roller": -38.213734974191134, "woe": -20.895357144954403, "holjs": 0.9813945203387939, "sattler": 32.500333743743525, "0310041": 18.930894491955893, "trying": -143.4533864713401, "practicing": -7.9151077277825514, "grrdmuczravuln": 9.567646235546743, "powers": 14.848950126352836, "judaism": 5.063673608406036, "etch": 0.9403978695208771, "hidin": -15.01140992540191, "foursquare": 1.9399926791694968, "talana": -15.080129817507746, "varenukha": 7.903484441277739, "nts": 13.590990680621918, "utgard": 0.9742146256099876, "carvey": -1.9375263031176169, "augustmail": -15.080129817507746, "subisidiary": -0.9698495314864222, "exigent": 0.9912247906027157, "spare": 62.06797019208371, "geut": 2.380732122199146, "923": -9.487882459564156, "maynard": -11.119697536168621, "94": -92.5652581571473, "00453": -2.8520448410655526, "truman": -12.202062751653548, "thatbiometrics": 0.9832814937626133, "traders": -137.99573082050068, "disadvantages": -3.831998684599439, "touts": -0.9714605056853883, "028": 2.7658978489677435, "ssisno": 1.886564318585318, "sceheme": 3.6137929144539425, "lkxcpc": 7.903484441277739, "kubin": -3.7174844530223874, "yens": 1.9777673815894814, "rydberg": 11.708785583836232, "yrobcz": 1.886564318585318, "doggett": -1.9440484975659218, "tholan": -2.9306967903834824, "manuals": -20.83219834361316, "goolam": -0.9727993955421231, "meyers": -30.39164877239068, "victoria": -35.45720543933791, "lgbyte": 5.317978511209287, "answertree": -1.9313094695138302, "infestation": 1.8614014105322088, "sheet": -117.0534342329081, "farmhouse": 1.95504736029252, "20284": -0.9689491084833549, "drogi": -16.83049732711389, "usb": 6.104069324741472, "hkwbau": 0.9854092324676875, "pledget": 0.9642395046890506, "racy": 14.79354475004453, "66": 82.40355001556166, "transect": 1.916979041675883, "xbox": 8.625643264150833, "operates": 70.8636387659507, "gfcbde": 0.9884785004433605, "titleaxis": 6.633304689442149, "peweshoth": 0.9815726474980964, "arts": -6.466767540142228, "parastatals": 1.9208156266454741, "barricade": 26.566706663717454, "bross": 0.9941257186256413, "yvxjftbmn": 1.886564318585318, "potters": -6.373747971601442, "momenta": 5.724188689512617, "roughly": 1.403254441923695, "pracuje": -0.96525933161209, "jlhisju": 2.8430249515043915, "id?xo": 11.474464199377142, "tqugizeej": 3.5965498139452032, "651": -7.14308504495264, "horizons": 50.069356060531916, "middlefont": 0.9622468294344365, "runge": 1.5843588694601962, "infect": -7.723215841181042, "sweeny": -1.9574099919549162, "sadam": 0.9713939526808137, "deficient": 4.935985796805847, "augusta": 0.002691481802646852, "bitternut": 16.217450197799444, "3302": 2.7723280436744306, "passed": 153.0352398159222, "muoojznd": 6.135946256491365, "09050804": 5.967508431678447, "mip": -3.503181820851056, "doubleton": 5.178416860616476, "crete": -3.422603749283087, "mattthhh": 0.892845747752368, "syndication": -12.393547490462367, "jansen": -15.067406448986143, "swordfish": 0.9930099770783622, "ligue": 1.8828490949770098, "adobe": 49.24665913704242, "hugging": 0.9672891982516134, "wlll": 5.397617010947969, "rlessmann": -15.080129817507746, "restaurant": 3.4860659540275307, "broadie": -0.9947736316995875, "travail": 0.9737526694605879, "predicting": -9.686791773265657, "mkktcx": 2.8430249515043915, "segment": 26.057809114238232, "2357": -1.9250613168490676, "zaire": 1.9409322509987845, "constantinides": -5.380986589569578, "aohx": 0.9934915076408721, "1921": -11.24401071894862, "applicants": -9.457716331520091, "wplynieciu": -9.014573150560514, "hoped": -4.868436454604, "oldster": 2.7532449483333368, "actress": 0.9882122884250623, "cfwkdehq": 0.9813945203387939, "chtremel": -1.945935470989741, "maroon": -16.733549173861896, "surround": 2.380732122199146, "iciness": 6.222506268705798, "approvved": 0.9762581943386882, "mechanics": 3.3351707182439396, "allied": -8.26480266055423, "alternatively": -8.40800319454422, "gels": -5.878912680500557, "769": -35.0106621828211, "boltzmann": 6.162837585222101, "ocena": -35.991731767902266, "strongemuwhy": 3.8674264148875155, "jingming": -9.618083625807689, "manganese": 3.7771100727972424, "steps": -98.85334653953737, "insran": 0.9744632206564867, "castigate": 2.380732122199146, "ali": 96.86522037853, "nora": 2.380732122199146, "chemotherapy": 2.994703163812391, "uksouth": 15.84390580009435, "prez": 0.987065227816807, "5576": -0.9793646536992705, "guggis": -55.45935470989741, "hieratic": 25.635113365213527, "dossier": 1.7491793427303566, "carminative": 1.9215398799305499, "lands": -5.616870012194859, "familys": 0.43145921377412266, "cyber": 37.00114901804957, "34778": -0.9798226949660482, "8222": 9.257648212562465, "908": -10.877141196114087, "newsgroups": 13.833699701098713, "smooth": 26.44272428851902, "bridgeport": -4.585304313613417, "delaneyroar": 6.189278702451304, "paxil": 8.309917767890525, "hellebore": 0.9529137492635127, "rxmeds": 4.7804024890823715, "nuke": 27.21555343716907, "ctl": -0.9728228848378554, "upsurge": 0.9749134321580203, "but": -96.26355772788041, "abacustech": -22.767863120044, "glacier": 28.769274435229246, "subscr": 0.42346893834255606, "dean": -11.410107443953562, "bartley": -8.042257243022211, "prosecuted": 0.9871826742954679, "pockmarked": 5.571848862041493, "odm": 1.9839607258975358, "dusty": 6.337795647042013, "commander": 1.9134556473160544, "cynthia": -38.282400057940265, "debts": -16.13691910482294, "pocketbooks": 1.932988954158682, "freely": 0.70379019361052, "workbooks": -2.933854143218151, "elegant": 7.622245146034908, "malaprop": 2.8291525649332216, "lettres": 13.947462275212333, "3224": -1.9168752972863992, "forests": 5.204967594559096, "wilmingtontrust": -10.770319708889328, "broadcaster": 0.9913813859075971, "hormonal": 14.41145416357554, "27201": 0.9932977209510816, "writting": -3.3637395741782172, "certitude": 3.598955509316442, "summitbank": -1.975719897978159, "flatiron": -3.611436155115479, "million": 544.311513082559, "illustrating": -6.6629599253040395, "hooves": 0.9677570267249462, "scherlyn": -3.7542295413127778, "screen": -91.3985115616271, "increadiably": 0.964286483280515, "sulphide": 0.9558166347277492, "krurr": 3.5965498139452032, "equivalents": 6.689686828964651, "broderick": -3.9614697252339632, "assigned": -55.06957529395875, "attack": 31.24339412493565, "payment": 201.29425432251978, "hdcp": 2.9722062908248854, "vessel": 0.992849466890859, "fkiolblayg": 14.917448827590526, "stowwjlray": 3.5965498139452032, "bergkvist": 13.995533118928261, "dartmouth": -7.384390580009435, "653": 17.862804895952205, "generosity": 12.12624321991266, "lawera": -0.9784270393112938, "cristobal": -0.9648678433498867, "clown": 3.4104597833895447, "incorrect": -21.044195109920118, "munoz": -0.9590053066233941, "0000": 22.69207294992278, "navigable": 4.587563200886329, "analytics": -49.71509833206426, "mistake": 94.35776154841437, "kost": 0.9935247841431595, "libert": -4.597035259390335, "biwhp": 2.834711698256507, "968": -0.06470517997694135, "piggyback": 12.758130721845632, "zwu": 0.9925147444266752, "multitudinous": 0.9672891982516134, "cannon": -68.90094368245605, "scotlandunkempt": 2.7554588144560954, "xcd": 7.168126591644466, "madhav": -5.835328292269477, "beneville": -1.9601582395555825, "mnxv": 6.633304689442149, "tomball": -17.159742870509383, "negotiate": 60.72832280556148, "zamiar": -0.9517764758618125, "nightshirt": 1.7655239776773393, "amiss": 1.9639243566379772, "sportster": -0.9993011934519673, "ijibibr": 7.593952289325485, "subsume": 1.880895568548616, "aristotelean": 17.535140965136012, "kowalewski": 0.9626481049031947, "proprietor": 5.423639235736615, "biased": -0.9695480855245258, "9283": -0.9460196409661147, "318000": 13.181225788897784, "totally": 118.13182388509037, "gjejnktks": 5.973067565001732, "mindspring": -47.04569450996435, "analogous": 0.9051012878006385, "rmartin": -15.080129817507746, "noms": -153.06719113044193, "hovcfyume": 12.67803026595755, "virilityy": 0.9418307165605407, "abcd": 18.127619301154304, "shingles": -0.9192261843009292, "communicate": -44.75929931430831, "benthic": 2.8528767536227346, "discrete": 16.410635953107537, "kswccw": -15.080129817507746, "breguet": 39.58130526101501, "land": 24.99028521877343, "xga": 62.61082347598513, "maryland": 3.732517602290989, "daigonosed": 5.430294536194069, "qvbhlf": 2.8211074811449466, "\u00e1tre": 14.786036005175474, "351": -34.28862276386798, "space": -29.785607325528364, "grout": 0.992849466890859, "vickytootsie": 2.758144423934809, "skinnergs": 8.864339529940043, "anarch": 0.9626481049031947, "bfi": 1.9075735361764516, "fiie": 1.854053175850655, "fecund": 0.9912247906027157, "oblige": 4.686938581363984, "perpendicular": 2.9502066079303777, "cfdmxctl": 9.567646235546743, "gild": 1.9645898866837226, "danusia": -2.7911625439690253, "embracing": 1.9841564700286374, "requestsmarket": 2.842723505542495, "xcf": 0.9978644315296816, "compietion": 1.9969111576112168, "wttxn": 0.9846751919760566, "buoyant": 2.7532449483333368, "jeans": -7.776131352141735, "consists": -54.989267349291694, "psychiatric": 2.5075508298572435, "minor": 38.441502845140946, "lcr": -6.748408110853816, "participer": 2.9809971597526577, "exploiting": -5.79234679596219, "ojjxoxbpli": 1.886564318585318, "beantworten": 14.0609664670729, "croquetsourberry": 4.417169892203707, "linkpopularitdt": 12.918006698364167, "proval": 5.9738720733805595, "starken": 8.99870808873473, "zxjcxz": 0.9846751919760566, "hitchhiker": 11.708785583836232, "xckwrd": 0.9978644315296816, "bold": 41.3930209387497, "tetrafluouride": 1.916979041675883, "accessory": 8.215390969540255, "infill": 0.9558166347277492, "zjsbskve": 5.593175185125012, "madrid": 8.403739887368827, "hereto": -0.09238927243863912, "heeralal": 0.9478831250942019, "vestibule": 3.615509590483703, "odbc": -15.56783219247129, "midland": 5.313527289668038, "surprise": 97.82393794128068, "vgimxnqn": 5.166059533620033, "chancy": 0.992849466890859, "hobbit": 11.9446494320484, "done": -56.82192764905426, "swish": 2.5075508298572435, "bammelyoungfamilies": -68.88411947438786, "zewkl": 0.9846751919760566, "achter": 14.440275529438939, "czek": -28.26390223755116, "pleit": 0.9935247841431595, "betterfuturetoday": 0.9936206987673992, "rcarter": -15.080129817507746, "ship": 51.15878959659092, "arch": -0.9798794607640676, "8545": -0.9684284290946247, "uzlq": 1.886564318585318, "provost": -3.5780735254105243, "hoof": 1.4811782230739268, "eepoj": 1.8266744442334757, "5095": 3.5955554337592073, "energy": -833.1506740449154, "caches": -1.9294910065358966, "gar": 3.750692444863772, "inexpedient": 4.7383214157781515, "vb": -17.474372199635525, "circumstance": -7.64681494937078, "inexperienced": -2.8190384656792027, "alight": 7.279164407453154, "105043": 0.9906649623877652, "linoleum": 8.79259734845, "fruitless": 42.0729597099855, "coursework": 10.392373025675758, "000": 9.860279796660997, "mkl": 8.864339529940043, "intelligible": 1.5843588694601962, "escapee": 2.380732122199146, "consolidate": -5.8307478796017, "pdfs": -4.824949938438471, "martini": 1.9088204262915687, "luluamandal": 2.8817118215753097, "rqx": 0.9978644315296816, "ina": -33.122925356890484, "\u0015": -9.618083625807689, "duma": 5.5703142280536575, "wacke": 0.992849466890859, "zny": 0.9884785004433605, "modelingproject": -1.9161530014426342, "melman": -10.770319708889328, "rpzeaying": 0.9700472330588348, "svp": 11.386005469091023, "lokhflbsdmptvb": 0.9660246911646971, "cfmadeghl": 2.770282517504419, "bsl": 0.9854092324676875, "rsultat": 2.9809971597526577, "optimistic": 10.853769346860558, "volautomatische": 0.9935247841431595, "autres": 0.9441385398662284, "aon": 0.9978644315296816, "zainteresuje": -5.22297213973782, "sourcesafe": 1.6496493243891315, "deweesw": -15.080129817507746, "zwmvpxojs": 0.9813945203387939, "bcpsol": -0.9771488301352005, "jaap": 3.6885769597413045, "cordial": 8.122710038346275, "sigfried": 14.888928907689024, "martiou": 14.622102252819204, "gateway": -25.55979689588957, "funuksocytjbr": 0.9896236036103048, "wczjhlgwbr": 3.5965498139452032, "forum": -113.1807501306592, "perscriptions": 6.8047902503763185, "flowerists": 2.7080143519596924, "porous": 2.1700585862184383, "rumor": -3.7602486733441514, "stutes": -7.776131352141735, "hummell": -14.11142930407089, "submisssive": 7.485834975952834, "jumping": -26.82139131013504, "lamtfvcbq": 0.9744632206564867, "mronyemaugochukwu": 0.9736684994842142, "motorised": 6.6660311507210235, "decaspermal": 0.9905436010264822, "spyro": -0.9801417578997438, "bowstring": 0.9626481049031947, "called": -87.28773212807147, "desecrate": 5.405382180628769, "examination": -31.479784524860484, "maclean": -0.9843972353098923, "qorhrjxr": 2.8430249515043915, "qpdhnatyc": 7.593952289325485, "cloven": 9.780335936077796, "colette": 2.7532449483333368, "waretimes": 2.8344122097359215, "skymqj": 0.9854092324676875, "mdesanto": -16.802821064417437, "vision": 40.21924712892296, "thirteen": -0.9312213846548346, "argus": -9.944551559982854, "networked": 4.8679275198631355, "lapelled": 15.032693184776587, "prototypes": 1.9810989467008306, "lamonsoff": -4.772149916515128, "lowry": -3.2709451113881975, "aberrational": 3.6948525165844215, "swimmer": -15.067406448986143, "leppards": -1.9572729710631451, "crate": 1.9712119106388892, "wnbra": 7.976056577883654, "seam": 3.724603667070552, "referred": -22.657316622004384, "149": -24.73207717799601, "moechten": 25.96753387841549, "ahm": 0.9738231373477845, "siteion": 2.796621847785449, "queryfoyer": 0.9425295231085734, "7236": 12.994141378156128, "exclusions": -12.509457377694172, "kronecker": 0.9626481049031947, "atascocita": -12.985229147867074, "ctwedick": -1.9372796655124287, "mgm": -2.909384169389141, "sawtooth": 3.725002985097999, "033": 17.782575248937597, "regard": 71.13209205454997, "2002012423": -3.9136063702970025, "laboratory": 14.809533130672907, "rpmdacd": 1.5932045467446772, "ctbauwcp": 5.166059533620033, "kijken": 0.9935247841431595, "vuaggryp": 5.973067565001732, "browbeaten": 11.203270492942444, "models": -129.90220623210163, "wpl": 0.9670836669139568, "retails": 63.04753058991409, "5484": -13.479506568194319, "ciaaliis": 0.9980464735716061, "vwpvc": 1.8266744442334757, "crutch": 7.233289812888185, "torrent": -18.47615934355248, "breeds": 5.3730119736685, "divisional": -13.144696019151604, "plose": 1.8704506617130352, "centres": 5.746135521491727, "isntead": 1.8913424328255077, "compiling": -5.865020719516277, "barone": -2.745287949404057, "configure": -1.9140565817985362, "areregistering": 0.9703819555230185, "8472": -2.880257442681225, "lankford": -15.080129817507746, "saeger": -1.8513068856912998, "708": -1.9559947618870517, "acloy": 0.9863977403297506, "spinning": -2.9024959334156764, "fliplock": 2.8369705855294196, "bki": 2.8211074811449466, "qmvrnbgtdbr": 1.8266744442334757, "click": 0.047642164068818715, "wartime": 0.9930099770783622, "apl": -0.9783761458372074, "okazana": -1.894562423782129, "amidst": 0.9863977403297506, "447092868687": 5.922778940280423, "raved": -9.454934807417137, "estutenwsl": -7.7768438607789445, "seeking": 107.77208532095186, "residentia": 3.863777744283782, "amestela": 7.919421928432031, "1511": -0.9656234156959389, "incoprorate": -8.181282554695803, "softwindows": 0.9995948096486197, "connectivity": -1.1743179785112092, "softzware": 1.6496493243891315, "fine": 8.592666250384148, "lazy": 5.596508707677672, "wjodybxdzknt": 6.117464095632752, "originated": 1.8166406000732083, "shape": -4.667050977644062, "gunther": 0.9711962511084011, "procured": -1.9585766269762817, "isinglass": 0.0740088985281998, "zyewplkkk": 6.135946256491365, "listing": 50.454173362747156, "shakespearian": 4.378208980349247, "jta": 4.420581712408808, "firmware": 1.8496352308116921, "untemperateness": 0.9905436010264822, "modulate": 0.7982563112801471, "klaar": 14.440275529438939, "biagini": -0.9793294197556722, "offbeat": 2.380732122199146, "chutney": 1.9345568646488056, "mbfimg": 4.671294710406345, "diffractometer": 2.8454502212887403, "clearheaded": 8.18657547600079, "achievements": 16.634079836201312, "xruzjc": 6.135946256491365, "certicom": 0.773999698554038, "kmfotxp": 1.8266744442334757, "prayerful": 10.698814377797916, "alphabet": 3.838033476161301, "likewise": 8.731339222621758, "flank": 3.6011498010260907, "fbelizrg": 0.9813945203387939, "brabant": 0.9742146256099876, "returns": 56.92722820438036, "ajbby": 1.886564318585318, "wof?ryvum": 15.339872492273, "litt": -2.8190384656792027, "greatfins": 1.8576548678629243, "papery": 0.9882122884250623, "enis": 5.195354600280697, "yqeo": 0.9875173967596517, "reef": 2.472585055718567, "virtue": 13.496900391684006, "mounter": 0.981645072826604, "npl": -102.77372761421181, "purrchaze": 2.8469750680700217, "5989": -9.098316404728395, "8751": -0.9785170816116006, "monomer": 4.587563200886329, "swroy": -6.835616036142197, "\u009d": 1433.1132007884573, "randyhobert": -15.080129817507746, "delighted": -25.43542107498762, "hydrocodonee": 27.31263078154759, "pastoral": 1.8614014105322088, "sido": 0.40636481616689935, "lit": -2.876824090621703, "accessed": -61.70109283948394, "combustion": -2.9497896729311313, "exclusion": -3.8275944416496532, "lisbet": -0.9785425283486437, "ycghoq": 1.8857911292674667, "ghostwrites": 0.9905436010264822, "opens": -3.114177551671558, "hoosier": -1.9537300022902064, "arden": 1.5965596011517584, "consigned": 13.555746949817078, "fiew": 18.930894491955893, "gcsawh": 0.9846751919760566, "onomatopoeic": 3.7598004192839287, "burger": 2.9052324363684767, "omnipresent": 13.270982302773106, "59909": 0.915749768532565, "tilex": 2.8612604747578154, "dehydrate": 1.9081000878891148, "mial": -0.96525933161209, "belmont": 5.523456997950559, "coverlet": 6.258932294062493, "muzo": 1.934695842981888, "mexico": -56.70282321760288, "userid": -15.969483489961261, "applanate": 0.9872237805629993, "penetration": 11.64929894239446, "ges": 0.9865523781933209, "jdzakbu": 12.67803026595755, "wearing": 24.326323083518147, "dsenbk": 1.886564318585318, "asshole": 4.6012515879742635, "decivilization": 0.9872237805629993, "bluejacket": 3.6174709466773414, "eli": -18.699311567890916, "cried": 2.9611506623002675, "helpless": 10.698383740709493, "addendum": 9.1207956607441, "adkd": 8.510160099124828, "ividlhzjw": 1.8266744442334757, "fqozhz": 0.9884785004433605, "nvfihuprqfxveg": 9.567646235546743, "catchup": 5.568944019135946, "safety": 22.407016644123466, "breitling": 63.9565173987171, "watanabe": 1.8496352308116921, "cgs": 0.9875173967596517, "printing": 9.364352253308564, "alilum": 0.976352151521617, "published": -167.87390358818567, "wgs": -3.8814416946743893, "dirk": -4.318591190339636, "fadil": -50.420470138254075, "leapt": 4.396283993415167, "125220": 13.940022040789161, "unemployed": 0.9716014414597814, "faradic": 0.9742146256099876, "deviations": -2.9393604256260386, "declan": -0.9822518796330189, "goonet": -15.080129817507746, "buck": 5.836307012924985, "838": -7.303156765602275, "rfgpzrckbkxhy": 13.338838963260784, "rsvu": 1.886564318585318, "fuubbv": 0.9749212619232643, "pickerel": 2.853068582871214, "riotous": 2.7532449483333368, "hypothesis": 23.300557283541245, "idiot": 8.749482746133564, "yyntpbr": 3.5965498139452032, "submissive": 0.9612504918071294, "ireland": 7.547457185864925, "issues": -359.51611072071034, "fenugreek": 0.9889717756537365, "bequest": 14.744252462950529, "dachshund": 12.784188180577875, "dispatche": 6.205220104488217, "mnc": 0.9978644315296816, "palmolive": 3.5004002967481025, "unconsonant": 1.9777673815894814, "competing": 8.504060711999703, "terms": -182.1857572655328, "walkman": 0.9716014414597814, "ment": 27.246586711713917, "24": -10.523435466096139, "techniczne": -9.014573150560514, "almaty": -2.839771684045483, "plasmon": 0.9889717756537365, "stadium": -19.630307846794985, "stefan": 2.8618379199445654, "altruist": 8.191308569090827, "ools": 8.864339529940043, "nadzwyczajnie": -12.319771527450179, "astounding": 6.2641351730671735, "aare": 13.166752467844132, "yyccbgyo": 7.903484441277739, "metode": -7.642588833580297, "meinem": 0.9919138099441933, "samarium": 0.9914127049685733, "cranky": 2.8687750919508055, "tcps": -0.9763952152304594, "nose": -13.11903983588812, "compiiance": 0.9992777041562352, "go": -92.43855885340918, "benson": 11.706211548512247, "builders": 0.773999698554038, "low": 289.0133477922998, "akx": 13.871268872181039, "bogey": 4.947190190870102, "wholesale": 0.5081028283069502, "continually": -70.07996343499632, "nomogram": 0.9863977403297506, "mcmullen": 0.9912247906027157, "mission": -32.60442460033942, "peritoneomuscular": 0.9872237805629993, "shareholder": 35.850608079143264, "mklhbi": 5.593175185125012, "104940": -19.36089149707069, "motion": -29.312850014974423, "wysylke": -28.26390223755116, "puzzle": 7.362224514603491, "compounding": 59.371348148554134, "replaced": -5.587463371379471, "deniable": 28.267958055947588, "greenhill": -0.9778848280681425, "florist": 3.3160504315179367, "beiieve": 25.260785990984026, "ejjzn": 2.8430249515043915, "policemen": 0.9889717756537365, "minddata": -16.802821064417437, "perpetrate": 0.9777419348524383, "32357817": 13.940022040789161, "ineradicable": 7.122937101538353, "invaded": 6.547639227906849, "1580": 34.096462707806865, "mwdxzm": 0.9978644315296816, "1454": 0.9935032522887383, "siltstone": 1.916979041675883, "tqqmtxsurascs": 1.886564318585318, "wvynqo": 0.9978644315296816, "withbr": 0.9619688727682723, "successfu": 18.70321274842377, "serene": 5.3730119736685, "pi": 95.08170947264574, "sexu": 5.195354600280697, "9868": -4.771983534003692, "comic": 31.826402359891244, "kheswyw": 2.8430249515043915, "licensee": -13.446723341117425, "gfilyeb": 7.903484441277739, "sir": 454.81121848764167, "inhuman": 4.76028390728775, "dungas": 0.9742146256099876, "fergana": 0.9742146256099876, "debility": 5.268901542659497, "aaa": -6.244257356553807, "depressive": 23.54806790755396, "inferno": -0.9039268230140289, "realizing": -0.9793294197556722, "344": 4.826823209773113, "supporters": -0.030722041376394435, "brggkrgizuvzi": 8.633723581882705, "apport": 0.9613914275815225, "450": 16.923358342908482, "eugene": 5.410113316277495, "7313": -0.9656234156959389, "samir": -9.551971045528127, "fossesca": -1.975719897978159, "mandat": 2.9809971597526577, "placestostay": -0.9709926772120555, "cmtvicationbr": 7.593952289325485, "minus": -40.74889942862288, "kjnow": 0.9663437540983928, "era": 8.2034936412519, "300457": 0.9972419651927786, "ogcgbh": 0.9906649623877652, "exculpate": 0.992849466890859, "10341": 2.1700585862184383, "formula": 12.100023293551601, "illegitimate": 3.548514204172873, "mts": 8.420327245038376, "yeah": -4.792352668286123, "cqry": 5.972505779345471, "ezs": 0.9854092324676875, "profiders": -1.9568345042094775, "jinsung": -0.9736254357753719, "freeway": -3.7692372438443362, "zcxjj": 0.9744632206564867, "ymvdcen": 4.420581712408808, "fontbrfont": 11.074694002987055, "abramdudley": 2.7541727755147583, "bundy": 0.992849466890859, "khcnb": -2.732503900201812, "170": 5.662754393966383, "melanoma": 0.9672891982516134, "ups": -2.056039587293074, "paradigms": -9.538445126069007, "burg": 5.362962469977743, "citrate": 28.535591176637546, "kaao": -3.8808740366941947, "yzqxrimproper": 1.8748118409539787, "2700": -15.497013923280045, "heizenrader": -0.9767769162861074, "brookem": -3.8076618167795786, "consultations": 16.996813285545663, "dhaky": 12.67803026595755, "risky": 7.480773032722547, "wither": 5.670914966792008, "clubhouse": 2.586054013635536, "gis": 37.85454253617841, "603": -10.260784033542715, "jaguar": 7.091676763801429, "liwe": -5.41933482229369, "excavator": 6.701717263262154, "ments": 14.047700887308146, "hearse": 7.122195231281478, "circuiation": 0.9992777041562352, "ipaq": -27.415695938896512, "piracy": 19.80822555987715, "kwmorris": -1.9372796655124287, "weaker": -1.8845285796218614, "xo": -6.737984735872657, "points": -286.08493337848495, "ucm": -2.732503900201812, "kmarnold": -15.080129817507746, "comparisonverb": 0.9730910542974646, "selves": 1.9424101191886014, "deall": -0.9759743653485909, "qgtj": 1.886564318585318, "lability": 0.9936344008565763, "sibyl": 4.344822861348559, "szvx": 1.886564318585318, "bases": 4.472994160952569, "unsuccesfull": 5.968283578437609, "sheble": -0.8783645969334725, "slavonic": 1.932376275028334, "enrononlinetm": -0.9882318628381724, "lgb": 17.343908736256314, "body": 393.5342209677198, "jobs": 38.196186512837876, "prolong": 1.932376275028334, "affectionate": 13.764130279463895, "ankles": 1.8655785902899167, "probed": -1.957640970029616, "ciaplis": 0.9353183093187909, "astoria": -9.864269062052847, "tammy": -68.15610985943614, "vhl": -42.570278994110055, "bitterroot": 10.443184287227108, "blacks": 22.45201626242241, "685958": -13.97662815074647, "csmo": 0.9851978288060979, "congresswoman": 7.85510432183467, "profiled": 93.96452724856177, "0361770": -6.6435655967944935, "askew": 4.687453388428781, "frmly": -0.991994065037945, "9857": -0.9798716309988236, "tertiary": 0.9478733378876468, "galvanized": -1.9375263031176169, "mccauley": 0.0021257812637632593, "andy": -98.83601731161096, "trading": -442.58917026020265, "023": 0.9994342994611164, "8748": 0.9873862481918136, "periclean": 1.9734101172311602, "recalcitrant": 1.9301134728727996, "csc": -15.080129817507746, "5702": -0.9792902709294519, "tasteful": 3.752671418029209, "barter": 8.602844945201431, "macvfknr": 1.8266744442334757, "orderdreamlike": 1.92608701609604, "mrichard": -15.080129817507746, "padilla": -50.420470138254075, "deficiency": -13.331999663320094, "rather": -156.13117988689905, "sullivan": -50.71434471715952, "stoft": -1.9303111744452122, "erreichen": 0.9919138099441933, "driscoll": -6.723249117683329, "pigeon": 26.689052617979883, "wykena": -0.9648678433498867, "council": 9.0095777603348, "idtdiz": 0.9875173967596517, "einsteinium": 0.9353183093187909, "liferadar": 7.007316915620577, "fob": 16.050599857889758, "tilley": -54.489636326978825, "667": -42.03011719201129, "swelled": 27.78407660642315, "gazelle": 4.700325522490022, "052": -5.705651720297296, "iqfiph": 0.9875173967596517, "303": -66.22905782477378, "female": 80.39073268985713, "andreas": 42.10696046555784, "000000000049773": -0.9785425283486437, "jpi": -15.080129817507746, "purcell": 18.006156152923143, "meekest": 4.534160287039194, "tonereverse": 0.42346893834255606, "collard": 4.3294882661180605, "5209776": 1.9839607258975358, "duluth": 1.8042128051895685, "kpkxo": 1.9342867377478854, "uninitiated": -2.909384169389141, "frantic": 3.809329556776564, "kyle": -14.963587676732482, "flax": 0.992849466890859, "quicker": -0.3885364407061669, "hinse": 13.995533118928261, "251": -68.14189492063554, "950": 3.6822974880155654, "lkrkg": 0.9934915076408721, "septembre": -6.679138177739586, "69": 12.196621064808925, "ignatius": 0.9558734005257687, "ler": 2.9809971597526577, "crystallite": 13.794443215606288, "nfwoo": 0.9813945203387939, "692": 1.886564318585318, "riemannian": 4.378208980349247, "citywide": 9.413370498619026, "pawns": -44.228047785057285, "completion": 7.895578335822545, "pessimistic": -1.9467536814577457, "exalijcf": 2.8430249515043915, "englishmen": 1.9619649578856502, "rrp": 1.9255134857919123, "groupsex": 3.7121308510367585, "traveled": 9.840384363175831, "edificador": 5.568194319113827, "wsy": 1.886564318585318, "volatility": -153.11963489804668, "jeni": -0.9192261843009292, "amanuensis": 1.9585139888543293, "agricola": 4.673447895848462, "malicho": 0.9905436010264822, "bashful": 13.342565931516958, "paperbound": 5.664198985653913, "raton": 10.514607405783456, "tudasp": 0.9742146256099876, "relinquished": 11.195959449645802, "donellec": -5.878912680500557, "pipeline": -149.59689628105724, "10056": 0.9761935987754247, "leniency": 1.9215398799305499, "october": -244.4311538529296, "wrap": -14.028921195370259, "shake": -31.064998796173594, "happened": 13.872944441943268, "avalanche": 0.9674594956456718, "wbe": 0.9749212619232643, "miner": 46.34123291398416, "realiy": 3.634723834392635, "klan": 0.9878795234021895, "mcsherry": -3.9152055998481026, "almanacdilettante": 3.598955509316442, "debate": -13.499954000129192, "diorite": 2.8881752927842843, "smithfield": 2.380732122199146, "admiral": 13.768728309103471, "machen": 14.0609664670729, "deai": 10.689101554012657, "bowed": 9.215619990173645, "318052": -4.894405828477248, "oihdpxk": 12.67803026595755, "pancreatic": 1.8704506617130352, "sawbelly": 2.5837853391560683, "informally": -3.848235660274316, "melt": 2.1700585862184383, "30309": -4.5501780292872365, "pl": 21.665046557741583, "urhg": 0.9978644315296816, "blackdepressed": 0.944941090803745, "bookings": -8.880966036435813, "qsfceg": 0.9854092324676875, "ogress": 7.154508672443728, "iab": -1.9372796655124287, "refreshes": -0.9999823830282009, "ytqg": 4.4166805318759526, "dnostdhdrs": 0.999888425845272, "timeout": 3.6959643432490785, "taken": 83.3008352402074, "noted": -43.07848556680649, "decentralized": -5.7143271001877185, "sawyer": 2.849764421938219, "patriarchal": 1.880895568548616, "bigfatblobinla": 0.9431226278258112, "reckon": -6.067743128891638, "youre": 23.300557283541245, "financially": 49.342614867549734, "steilar": 0.967238304777527, "businessman": 3.8161962608956075, "posing": 0.9555719545638723, "fonctionnaire": 2.9809971597526577, "footage": 0.8588352049734669, "inflater": 8.10747723006395, "bbrown": -18.887791634287325, "uracil": 1.916979041675883, "fremont": -6.590090257618851, "die": 100.26420368351306, "vvant": 3.54954773318509, "bubaeyo": 3.604637961442321, "bkhlr": 12.67803026595755, "clergyman": 2.7532449483333368, "rod": -52.79471529994852, "enjoing": -1.9889600310058704, "3401": -1.9563216545859914, "impaired": 21.035827048315525, "7282": -15.56783219247129, "centre": -15.895120294555769, "aaxrzm": 0.9875173967596517, "pershing": 4.402299210563919, "804": -3.9343885246960584, "yimg": 1.9530292383008627, "enrshz": 0.9979975375388307, "stacie": -15.076297147420778, "padding": 0.9655705647805415, "standards": -91.7889036566961, "20551": 3.604637961442321, "worlds": 19.21961708533074, "heist": 0.9935247841431595, "torching": -4.41185739648561, "handy": 22.99597354322324, "1777": -13.479506568194319, "qrtqqk": 0.9875173967596517, "vawltfe": 6.074594173480193, "refinery": -16.229874077800464, "jebmx": 0.9846751919760566, "0989842": -0.9788537615170954, "lovelace": 2.90529703193174, "31": -259.7413534923689, "zigzagging": 2.8354966322222244, "foriegner": 13.947462275212333, "vacuum": 7.220961847511407, "simmmmmmply": 24.345993411252547, "einmalig": 12.918006698364167, "potentialiy": 13.792797007463722, "offroad": 21.66579430032239, "pharmaceauticals": 4.222005163730178, "judicata": -18.47615934355248, "skyjack": 1.880895568548616, "flip": 8.635457874884267, "opgestart": 0.9935247841431595, "jpamt": 5.166059533620033, "cannibal": 19.702917174785807, "toiling": 0.9960048622842166, "snippy": 0.9672676663971922, "boca": 25.884254537838316, "weitergabe": 13.64028101027461, "uyvbrjzkf": 5.973067565001732, "missy": -56.43933791505096, "sinserelly": 0.9970618805921652, "feusi": -0.9792824411642078, "numismatist": 0.9672676663971922, "adventurous": -11.169545736594953, "miteinander": 0.9975786450982733, "meaning": 106.51522399979643, "undeliverable": 21.306607734633594, "waterfront": 0.9626481049031947, "smallish": 6.501600208271755, "forex": 31.577501952547706, "unusual": -23.848214128419894, "wybiera": -12.319771527450179, "gunny": 0.9674594956456718, "nostalgic": 0.9672891982516134, "tripartite": 6.121641275390461, "choisir": 2.9809971597526577, "mccann": 8.418397207905715, "bxpaax": 12.67803026595755, "irrt\u00fcmlich": 13.64028101027461, "fibonacci": 0.9672891982516134, "tolerates": 0.9910407911194803, "rbinal": 0.9742146256099876, "yspb": 10.30035175220359, "andinnovation": 11.386005469091023, "pxivltmax": 5.973067565001732, "medz": 14.45372706612824, "ventures": 91.137001317358, "caporals": 12.226955532805738, "hartshead": 0.9742146256099876, "find": -298.81225201665393, "epileptic": 5.133977070532483, "pageid": -0.9670699648247796, "overcapacity": -1.9184236333634126, "dissemination": 80.16867076032892, "tuffano": -6.323868452114135, "incriminate": 0.9626481049031947, "signoff": -2.923483619152389, "2189": 2.9722062908248854, "thfer": 0.9749212619232643, "precooks": 0.9905436010264822, "dgdmnp": 0.9569382485989614, "councilwoman": 3.834962250744317, "sedative": 2.893961489299647, "replacing": -3.802042002775652, "tripointglobal": -15.080129817507746, "repair": -19.931182235828615, "lymphocyte": 0.9353183093187909, "cacklecc": -1.8501715697309105, "valium": 46.903425718038406, "ticz": -15.162743628039172, "spoke": -92.2721000017617, "qtgdlyhid": 0.9813945203387939, "orks": 12.055808609218374, "deposits": 116.1746898923603, "involvement": 10.80365884929855, "wasn": -23.644422956088718, "nomograph": 1.8704506617130352, "yomama": 4.808552452576091, "ogler": 0.976352151521617, "thedistrict": 0.961827936993879, "ntermine": 4.387219082703853, "nightwear": 0.9742146256099876, "hexahydrated": 0.9905436010264822, "benita": -55.45935470989741, "brunoguffaw": 8.79259734845, "nnkk": 0.9846751919760566, "agitation": 11.98439527786858, "quercitron": 0.9968230727522212, "buttress": 2.8287689064362627, "pristine": 8.322539349463955, "wusath": 5.685035948409677, "solvate": 1.8496352308116921, "reynold": -12.237513971237357, "adagio": 6.504542242562213, "diabolic": 0.992849466890859, "pxwsurf": 3.5965498139452032, "taxes": -195.2022917722869, "defining": -4.790281695379068, "knoblauh": -5.6930497131369755, "tipton": 1.9708811030573277, "wart": 2.4619502770758177, "electrolytic": 4.695664854728493, "5652": 0.9500617572733625, "dorcheus": -7.828120993362316, "cornell": -7.110270498814769, "abook": -0.9794351215864671, "automation": 31.919821246459477, "luu": -10.175036359472351, "turnover": -2.9002076845230986, "radii": 3.6140904455332166, "lung": 6.3439498425238465, "leaders": 23.208113202745896, "mustn": 0.9674594956456718, "hudsonhumidistat": 0.9551863386256022, "nuetral": 14.196433150443067, "zjntfk": 0.9935345713497145, "tonbsp": 2.840368703645343, "ckarlik": -15.080129817507746, "siewert": -1.9375263031176169, "professiona": 7.669478204869723, "carolinianmetamorphose": 4.417169892203707, "brbrimg": 5.993485635316939, "dalecka": -2.7911625439690253, "pacesetting": 1.880895568548616, "ozlqh": 5.166059533620033, "aohxa": 4.575129533678757, "alkalinedalton": 1.9186565688794235, "inclines": 1.8814553967635665, "pervasive": -7.420910562549059, "maximized": -3.5994155080245305, "mckee": 2.88591249062875, "declassify": 18.633842985802676, "omers": 0.9424414382495777, "coliform": 1.9288470083445723, "venial": 5.339105175279082, "explaination": -3.7539985632380777, "pfe": -4.589097834874166, "topeka": 4.6028801791450284, "psalter": 1.4625238073799451, "alpen": 7.362224514603491, "cancelling": -14.367468499875702, "seppi": -8.618473156628582, "wizard": -20.967349878932254, "digram": 9.869926067441682, "acronyms": -6.188850022804191, "cantle": 1.8614014105322088, "apron": 1.9639811224359967, "auncca": 0.9846751919760566, "gog": 4.700307905518223, "ideaglobal": -2.9109814414989303, "transoceanic": 1.916979041675883, "definitive": -23.491946107725823, "aerpac": -0.9736254357753719, "conversely": -21.55920379117233, "mommy": 2.752681205235764, "manhood": 12.788774465569587, "nagenoeg": 0.9935247841431595, "night": -98.031663570647, "jeszcze": -1.894562423782129, "saigon": 15.9856069340401, "ieading": 0.9756416003257182, "twirly": 0.9883179902558572, "faking": 4.7275868076285406, "newsweek": 6.300962473892627, "bands": -4.533046502933225, "2002012301": -2.822121435744053, "aoewulgxf": 4.420581712408808, "rotten": 0.9353183093187909, "honey": -19.37114065977517, "byroad": 16.547106803870253, "weatherproof": 4.6702239900092195, "ikcgh": 3.6201917900996534, "abraun": -0.97955648294775, "resumen": -5.867215011225926, "outpick": 0.9905436010264822, "vifu": 0.9854092324676875, "trammel": 4.3884463984058595, "5761": -4.898144541381288, "1385": 0.9372698783058737, "chaplain": 2.0147317033067056, "inboxes": 12.355236449123165, "microbiology": -1.9515415829044906, "salsify": 1.923636299574648, "supercenter": 0.4496673328491927, "calcine": 11.708785583836232, "benkley": -14.11142930407089, "lvhf": 3.354224451965369, "mainstream": -8.877466131371715, "auditors": -8.739139626246157, "kytlc": -15.162743628039172, "cybernetics": 4.662611500750678, "bcqec": 2.8430249515043915, "pvq": 0.9978644315296816, "gimmick": 2.8912797947035553, "expectancy": 0.9667117530648637, "throb": 0.9626481049031947, "twryc": 0.9978644315296816, "dissipate": 1.9525163886773764, "wasl": -2.9149863664212687, "aida": 2.902216019308201, "festivals": -3.8076618167795786, "laks": 0.9934915076408721, "pillmonger": 1.9777673815894814, "fable": 7.226221492314107, "dempsey": -24.377578684247098, "scorn": 3.845810390489967, "mzy": 0.9875173967596517, "tnnesetoh": 10.30035175220359, "netspace": 3.606225446345555, "complications": -12.105590256640129, "rlb": 1.886564318585318, "fmc": -1.947160829250437, "birthday": -43.83986759866972, "berrie": -3.5994155080245305, "clicks": -14.138420462308488, "fluid": -1.8820837354244027, "tga": 40.20701312072911, "odyssey": 2.4095006371471466, "blimp": 0.9996026394138637, "1521": -0.9744651780977976, "lome": 34.26888588312901, "owns": 18.964268866308714, "1864": 2.870341044999618, "cnslidation": 7.171810496191798, "octoroon": 1.8496352308116921, "legitimacy": 2.9241941703482874, "148384": -0.9480377629577721, "voiatiiity": 0.9936285285326433, "impersonators": 0.9871826742954679, "bow": 16.3853438539279, "liens": 55.64292355604448, "nauru": 0.9742146256099876, "iqrg": 1.886564318585318, "aanalysis": -0.9985632380777143, "speicher": 9.728825867978413, "roemer": -28.003621266425377, "happiness": 14.500560806935606, "coerce": 6.758941102548393, "damaging": -5.893536724535156, "nom": -193.47183535569644, "revise": 25.520618708049586, "transitional": 77.23861405325415, "treachery": 3.752657715940032, "febiak": 12.67803026595755, "expended": -0.9985632380777143, "oibr": 4.420581712408808, "odds": -30.548306715393903, "bumper": 2.788929103433155, "oiwqeddqh": 4.420581712408808, "commissioned": -2.9950887797506613, "mysql": -13.687328112184876, "leftover": 1.916979041675883, "eyebrow": 0.9353183093187909, "dxbnynqzcbr": 3.5965498139452032, "ebkmwf": 0.9978644315296816, "expoprod": 3.6209708517414376, "invite": -159.2480430480493, "dtletkd": 5.973067565001732, "dll": -0.021032706886865767, "csansada": 0.9658680958598159, "tokyo": -20.855914702537433, "literature": -30.113652957400205, "developers": -45.8482865537484, "inoperative": 3.733717513814642, "1115": -0.8783645969334725, "lbn": -2.745287949404057, "guinness": 2.875814050905219, "israelite": 1.9289899015602765, "01890": 13.185541946988574, "chromatin": 1.915141004284839, "eijqpud": 7.903484441277739, "calk": 0.9884785004433605, "assemble": -3.9082018748372875, "irreversible": 2.817355066151729, "delimit": 0.9672676663971922, "steeds": 0.9935247841431595, "fricative": 2.8790007653595526, "internautes": 2.9809971597526577, "tqvpu": 0.9813945203387939, "fnwnpibo": 5.973067565001732, "werona": -5.22297213973782, "authoritative": -0.9797424398722965, "silent": -16.281554443293903, "wire": 14.868963006316665, "arriving": -40.436687539515844, "emailing": -1.271506897044457, "trefoil": 6.468386344106438, "watermelon": 0.992849466890859, "iyfrfzdv": 1.8266744442334757, "unimodular": 3.3433802271023407, "heavenward": 1.916979041675883, "6202": -0.9788263573387411, "ingest": 13.949306184927309, "factorial": 2.8803220382444885, "tatsuro": -0.9793294197556722, "arrangers": -3.887785761963392, "schultz": -57.98484157448749, "autolyse": 0.9742146256099876, "murderous": 25.606677615288397, "shippers": -18.342945675131297, "xmmrl": 0.9934915076408721, "repudiation": -0.9727993955421231, "photograph": 2.742937062389527, "karathanos": -10.770319708889328, "transformation": -2.014841320020123, "ruby": 1.9075735361764516, "aluminium": -9.751385379087871, "vxsxlueyz": 12.67803026595755, "fears": -36.494369420068864, "inheritor": 5.659207510310822, "lafollette": -14.11142930407089, "haughton": -33.82264015769147, "smilow": -1.8845285796218614, "dannym": -15.080129817507746, "heut": 0.9716014414597814, "esposito": 0.9483078898586923, "imrpwx": 14.035611729771311, "technicien": 2.9809971597526577, "disabled": -8.762012327965376, "sights": -0.9969698808505474, "carboy": 3.730530799360308, "remunerate": 0.9990878323490666, "bulkhead": 1.7846540516098974, "defenses": 0.9863703361513964, "demodulate": 0.9878795234021895, "ppco": -1.945935470989741, "deemphasize": 1.9639243566379772, "mccarthy": -14.105234002321524, "kopie": -9.014573150560514, "kianim": -16.802821064417437, "haleburr": -15.080129817507746, "cirop": 0.9906551751812102, "qbivssqc": 6.135946256491365, "barbituric": 0.97524032485696, "ej": 13.98822794795555, "thisperceived": 1.9134556473160544, "assesses": -2.841504019605732, "moluccas": 4.378208980349247, "advised": -14.706280058958129, "endoderm": 2.7849535401304832, "znow": -0.9517764758618125, "weakest": -1.9184236333634126, "edmonton": 3.5841337637094295, "jetzt": 21.916714787098897, "modest": -19.126540750991932, "neiro": 3.954634340175896, "oilshale": 0.9558166347277492, "collections": 6.689908019832794, "paton": -0.9985632380777143, "luwak": 2.8430249515043915, "xanq": 6.936680688471258, "involuntary": -0.9801378430171217, "deprecate": 10.797142527174179, "winning": 15.745360374732565, "modify": -119.81080155264245, "drizzle": 1.457555821332587, "kizzb": 1.8266744442334757, "legendary": -45.82245420076693, "berkshire": 2.954924041489926, "848": 15.70845281881336, "volatile": -1.032517015058596, "502876": -2.9357509038485254, "tfiedler": -15.080129817507746, "cguggis": -55.45935470989741, "jorx": 0.9620921915708662, "puchase": -0.9622194252560823, "khis": 0.9872237805629993, "dido": 0.9529137492635127, "percent": -3.7530903104697666, "iudlvbr": 1.8266744442334757, "bluebird": 0.9353183093187909, "barbie": 3.8541197288552294, "renamed": 25.601705714358417, "cochran": 4.654959862665917, "estuarineintractable": 4.417169892203707, "knop": -1.957519608668333, "grillers": 0.9409557402945166, "vov": 3.8685499862000388, "sank": 8.57752544184344, "advertisement": 200.08455950719457, "reminds": 1.6573870898915786, "alltel": 14.566088112263174, "bazaar": 18.76084569294401, "pit": -3.565587007287554, "panorama": 3.804426166292469, "sungvince": -11.237600098655042, "natrajan": -1.954559957406077, "tonight": -20.66176588610432, "elastomer": 6.380048975181601, "mccallum": 4.662611500750678, "objectives": 5.865275186886709, "fffffd": 7.172988875861029, "djyyfijgm": 1.8266744442334757, "utvrevp": 0.9689745552203981, "papel": 1.8828490949770098, "witcosky": -0.9822518796330189, "egsmith": -15.080129817507746, "inau": 0.9846751919760566, "lsil": -15.080129817507746, "skyrocketing": -2.816570132186012, "aroutine": 1.9426469695872344, "auerbach": 5.543403324909811, "vnlrxokq": 12.67803026595755, "aug": -79.09569147593032, "sbol": 3.576151318043107, "squlrt": 13.951950688138492, "lapses": -4.8347997831155025, "extrasystole": 0.9872237805629993, "hence": 212.08282717163434, "metall": 8.99870808873473, "pensive": 6.435565925644634, "esteem": 13.919022610404584, "chordate": 1.9378649404644226, "rhbrooks": -15.080129817507746, "geeet": 16.281147295501214, "ceat": 0.9663437540983928, "isoverwheiming": 2.894801231622073, "kacb": 0.9884785004433605, "increasing": -67.68788794039983, "qpl": 0.915252578439567, "offerings": -1.8490401686531435, "skate": 1.9554799548222546, "jokes": -19.894067191130443, "importados": 13.940022040789161, "powinny": -0.9517764758618125, "provisional": 14.712643700660244, "canadaskylimo": 2.8853683219442874, "1095": -1.53413288286084, "ragging": 2.673624065566454, "accountant": 15.101554012656816, "nic": 33.8110951688391, "ut": 39.5093732077178, "aggz": 0.9875173967596517, "khairuddinbmjaafar": -0.9782117207670821, "catalytic": -0.9882318628381724, "11814": -0.9684891097752661, "fleetboston": -1.8513068856912998, "serifa": 5.552409512381795, "maximalen": 8.99870808873473, "oba": -6.351350928120798, "jqbt": 0.9620921915708662, "leslie": -53.252204568276525, "oversea": 3.4674996231925475, "autocorrelation": -2.899994323420198, "799": -4.68078438588215, "tfpwsan": 5.166059533620033, "reneel": 29.353643091895997, "2129": -1.8845285796218614, "queensland": -8.757265532786164, "gunnery": 0.9672676663971922, "automate": -0.9417719933212102, "storekeep": 6.310585255377581, "bqugyq": 0.9934915076408721, "burgeoning": 27.78407660642315, "openness": -5.5439435787116516, "steady": -13.551182196679788, "suspected": 2.6532686333732, "confiict": 10.148722475928366, "candle": 1.0257834169487012, "vibgra": 2.7587786349195786, "froncie": -0.96525933161209, "efqiraxnp": 0.9979975375388307, "1924": -12.237513971237357, "ebidkdeb": 1.987327524952483, "butadiene": 1.989774326591253, "millikan": 2.7532449483333368, "tzz": 1.886564318585318, "abordar": 1.8828490949770098, "rustle": 1.8904204779680194, "unquestioning": -3.5994155080245305, "berry": -99.65260114588614, "fneor": 0.9700472330588348, "4266": 1.0195548386970485, "subjected": -7.4881565013476985, "vocalic": 0.9653297994992865, "diversified": 47.384308367474375, "sqvt": 1.886564318585318, "joy": -1.798984479447845, "weidell": -1.960334409273574, "11822": -8.332941192590694, "chafe": 0.9705894443019862, "kasereke": 4.847922469664553, "shantaewinston": 11.943615903036187, "dolalrs": -5.6930497131369755, "destroyissuance": 4.417169892203707, "rambin": -3.9614697252339632, "alopecurus": 1.775961054747676, "ghana": 36.13089214302632, "pedrobull": 1.9413902922655621, "reactant": 1.8428213776080458, "pjszc": 3.564494755036007, "copier": 1.9310197681998, "piliform": 0.9742146256099876, "bludgeon": 3.7342616824991044, "cu": 6.07424183404421, "blythe": 5.6082553129850785, "equipment": -27.925476294407005, "soem": -7.354289047528632, "fernando": -3.8814416946743893, "afterwards": -2.483151323915431, "kckuddes": -15.080129817507746, "assistants": -11.727614211806895, "ahead": 61.441720121126465, "terri": -0.9736254357753719, "vhcuv": 4.610028754812859, "cle": 9.247504751688782, "edwardine": 2.8807370158024237, "hopkins": -0.048151098809679944, "tisdalel": -15.080129817507746, "py": 6.26528419111674, "eiectric": 15.115616271035154, "detiveaux": -0.9882318628381724, "zanu": 5.707225503111353, "pepperll": 2.844048693310053, "intervene": -0.08266470400551217, "39806": -0.9779964022228703, "umedvgtra": 12.67803026595755, "gimmickry": 6.349185998030814, "acsqqylxwu": 3.604637961442321, "pile": 2.5842805718077555, "ffdownload": 3.7121308510367585, "ayres": 11.386005469091023, "salty": 0.9851978288060979, "grasp": 5.528495451885114, "stanow": -0.9912169608374717, "ojgfbnwqv": 7.593952289325485, "brochaus": -0.9822518796330189, "kaymassmanlobb": -16.802821064417437, "enso": -13.214046207359587, "play": -87.29053322658754, "0999": -0.9775422758387147, "inquestion": 5.794257258681742, "hehofl": 0.9934915076408721, "scripting": -35.541772776297734, "yfl": 2.7458379904124524, "adrian": 9.63388800695283, "lind": 3.3433802271023407, "leftmost": 2.874770734686447, "frogspacers": 0.9619688727682723, "fontsit": 2.8796271465790775, "lawbreaker": 4.668344846350644, "nmtnua": 0.9978644315296816, "messers": -0.9788772508128275, "carnage": 0.9672891982516134, "cranelike": 0.9672676663971922, "bead": 0.9672676663971922, "tritium": 4.607762037774702, "hoop": -23.732599814826052, "creamery": 0.9353183093187909, "dyjliuly": 4.420581712408808, "fhr": 4.420581712408808, "amtrak": 10.094219480064439, "rodernivides": 3.564625903603845, "cornerstone": 8.043733153770717, "tweak": 2.380732122199146, "showed": -16.850455398721007, "butterfield": 1.933247336411736, "7037": -0.9762210029537789, "aforementioned": -3.9810695850811655, "relford": -2.732503900201812, "fsvfemoo": 1.8266744442334757, "hgxpwp": 5.973067565001732, "kelly": -72.82135607619145, "mackintosh": 0.9909233446408193, "turmoil": -0.22331860684987015, "moneywort": 0.9672891982516134, "ntiag": 0.971920504393477, "eavesdrop": 1.9487228674166277, "strappingmachine": 13.181225788897784, "goddesses": 0.972787650894257, "endeavour": 31.047734163810432, "corroborate": 1.916979041675883, "lincoln": -9.467025922395282, "crawl": 18.72635557704391, "humans": 3.743326593210419, "bellyache": 1.916979041675883, "shlppl": 2.892475791344586, "cwgejtt": 0.9979975375388307, "xvnbsmji": 2.8430249515043915, "denise": -14.181607489953432, "gtwejc": 3.5965498139452032, "jeopardized": -0.9769530860040989, "zimie": -13.285030859062267, "diagnosed": 42.50676785333284, "sample": 64.64899358154995, "thunderbolt": 0.9626481049031947, "newcomer": 0.9672676663971922, "codifying": 0.9997083412446587, "advertising": -8.164466176392864, "ctrl": 0.9661460525259802, "kings": -14.087335158973595, "cavort": 0.982500474679518, "pervert": 1.8496352308116921, "lshqy": 0.9884785004433605, "applic": 3.6201917900996534, "embus": 0.9742146256099876, "tatiana": -0.9388671504156627, "ajgjac": 0.9846751919760566, "matriarchal": 4.378208980349247, "evwfxdzej": 0.9813945203387939, "1897": -4.898144541381288, "830": -18.468654513566047, "declination": 0.9710748897471182, "ecstasy": 7.4825543043155704, "lzevaw": 0.9478831250942019, "luftwaffe": 0.9672891982516134, "lilly": -4.893432980145673, "hwiomuraaw": 1.941623227781573, "antidotes": 0.9998238302820086, "playergordon": 5.7982269496604815, "grasps": 0.6410189656488623, "wrote": -404.739881496503, "arap": 0.9723139500969912, "salad": -14.42158979468398, "michele": -20.839685556627796, "confluence": -1.9184236333634126, "fiber": -1.0695635493108828, "boyish": 3.768315288986848, "assortment": -22.52288542508774, "ignoring": 4.107647527458006, "prahalad": -2.855280491552662, "wealthnow": 0.9625424030723999, "biancardi": 3.6885769597413045, "3622": -7.6193970689273804, "means": -23.640218372152653, "softened": 1.9708497839963512, "aficionado": 3.5313161248142872, "smirked": 6.197703529853916, "yardstick": 1.916979041675883, "oxi": 5.023884698877016, "plj": 1.886564318585318, "sabra": -4.9325132959201055, "lowpriced": 0.999888425845272, "hfqzmhdr": 1.886564318585318, "compliments": 15.981437584047637, "mayday": 14.509917376402262, "venue": -16.82359734649256, "ihengist": 0.9742146256099876, "employers": 17.647889584650528, "bridgetown": 0.9678764306449181, "seminar": -100.65624981648988, "programmable": 5.317978511209287, "visit": -145.58809562492291, "drearybuckthorn": 0.9430619471451697, "6044": 75.62658283598012, "ambrosial": 1.9304286209238732, "jiqxutq": 0.9394954890764987, "lorenzo": 0.9953315024732271, "while": -84.28179520857516, "construed": 67.05116360098734, "contraceptive": 8.362486811739167, "deform": 1.936191328143504, "idaho": 1.8593578418035082, "treadmill": 8.551346621749913, "module": -5.311751890398946, "surges": -4.41185739648561, "southampton": -1.9303464083888104, "143559": -0.9793724834645146, "investigative": 18.670288585572482, "ampl": -2.73677699458376, "buil": 13.824720917805081, "krtw": 0.9854092324676875, "mclary": -15.080129817507746, "boo": 11.699350716717136, "dnowloadable": 3.7265258744379697, "authumla": 10.30035175220359, "swell": 0.993974995644693, "epri": -6.778658408874256, "126432211": 0.9745160715718841, "enrolls": 0.9927946585341505, "cigna": -14.848621276212585, "nnen": 14.0609664670729, "please": -695.2573917877507, "destine": 0.9529137492635127, "emergency": -69.21544577789696, "serge": 0.9672891982516134, "envisaged": -1.950492394361786, "previlege": 5.430294536194069, "bluegrass": 1.8924190255465665, "stopwatch": 2.7532449483333368, "slaughter": -0.9841819167656806, "cryptology": 1.9410203358577802, "stage": -18.98849611741516, "alhibklb": -1.9294910065358966, "reptiliangalatia": 4.417169892203707, "agjwxor": 3.5965498139452032, "alecost": 0.9742146256099876, "saw": 7.868524539462996, "camden": -9.21694126305858, "psychoses": 0.9882122884250623, "rov": 0.9979975375388307, "venus": 4.790667311317338, "brandfass": -1.875244435483713, "angels": -4.5069498953747615, "iqccjypkiducrbiixmqcuncw": 3.715613139129056, "arbij": 5.166059533620033, "roland": -65.79170475521218, "measurements": -9.418498994853886, "united": 456.1476615427378, "durable": 0.9748507940360678, "exasperated": 11.708785583836232, "zariphopoulou": -5.380986589569578, "wellbeing": 6.777016115614313, "receeived": 5.7360723157117945, "portentous": 5.958382840286491, "inabiality": 0.9863703361513964, "millionaire": 24.566146835502504, "faye": -6.694288773486849, "datsun": 0.7982563112801471, "gbcq": 0.9854092324676875, "aruba": 21.415850576760082, "metabolism": 14.646482184347906, "predict": -2.8505219517255824, "commiserate": 3.7335335143314063, "cannylinguist": 9.773081658579171, "uwu": 0.963906739666178, "conceed": 11.396959310667468, "statehouse": 14.010550608666374, "usr": 24.992129128488404, "guile": 1.943837093904332, "tba": -9.59322803604041, "udubt": 1.8523482444687602, "piggy": 2.9229081314069503, "obduracy": 0.9672891982516134, "shuffle": 5.133977070532483, "horseback": 3.6885632576521274, "servi\u00e7os": 1.8828490949770098, "408": -16.928800029753106, "pa": -19.782277717858324, "morocco": 0.9889717756537365, "uso": 1.8828490949770098, "rucusiios": 0.9590953489237009, "xpclqo": 4.420581712408808, "ieau": 0.9884785004433605, "brbrbrbrbrbra": 32.780005128496235, "meters": -36.404299715583775, "overweight": 11.955765741253662, "cocoon": 7.340808149219666, "homonym": 0.981645072826604, "agrjhxb": 7.903484441277739, "babbitt": 1.974512156689262, "curatives": 1.9529881320333313, "selfish": 3.8438588215028844, "feb": -108.82959690411082, "ultram": 2.8528767536227346, "born": 23.400402449933544, "rofujest": 7.444501645229422, "irena": -3.9614697252339632, "jacobsen": -0.5640249691213635, "reproductive": 16.33547999397108, "wilde": 56.53237510056354, "ow": 22.26745695097197, "heath": 6.612518620160471, "inject": 6.129696146385291, "harbour": 1.5829358096270878, "hailed": 0.9906081965897457, "gaain": 1.941623227781573, "homeomorphic": 2.8695267494142356, "customary": 0.9672891982516134, "discloses": 28.564199181398045, "amicollect": 9.63448306911138, "offersplease": 2.8403550015561656, "quite": -21.363406809155343, "ellipsoid": 1.880895568548616, "skew": -3.9703643385512195, "jduffy": -15.080129817507746, "nitric": 1.932376275028334, "goblue": 10.534890412648203, "guis": -13.996359159161509, "ozff": 0.9912247906027157, "amhhnjbwit": 0.9929943175478742, "chilcoat": -15.080129817507746, "bergeron": 5.332324598577723, "ordered": -69.31527528475877, "mrobson": -1.930919938692938, "ripe": -0.9719753127501854, "declaimer": 0.9725038219041597, "abeckley": -15.080129817507746, "valui": -1.9124084162146608, "sb": 11.895846505282154, "8339082": 13.995533118928261, "synneusis": 0.9905436010264822, "whippanyparley": 0.986074762513433, "bgfort": -15.080129817507746, "commentator": -21.300776516968078, "abbfxpuwd": 3.6201917900996534, "chipmunk": 2.380732122199146, "sina": 1.8803807614838188, "negotiation": -76.0631862055196, "abuse": 